// #### Generated By: http://www.cufonfonts.com ####
/*!
 * The following copyright notice may not be removed under any circumstances.
 * 
 * Copyright:
 * eurofurence © 1995..2000 tobias b köhler unci@tigerden.com
 */
Cufon.registerFont({"w":1070,"face":{"font-family":"eurofurence light","font-weight":300,"font-stretch":"normal","units-per-em":"2325","panose-1":"2 15 3 2 2 2 3 2 2 4","ascent":"1860","descent":"-465","bbox":"-286 -1873 2220 451.089","underline-thickness":"70","underline-position":"-190","unicode-range":"U+0020-U+20AC"},"glyphs":{" ":{"w":456},"!":{"d":"220,-410v0,23,-12,35,-35,35v-23,0,-35,-12,-35,-35r0,-975v0,-23,12,-35,35,-35v23,0,35,12,35,35r0,975xm185,0v-39,0,-74,-35,-74,-74v0,-47,25,-71,74,-71v49,0,74,24,74,71v0,39,-35,74,-74,74","w":370},"\"":{"d":"646,-1386v5,2,-151,395,-153,388v-14,35,-68,28,-68,-11v0,-12,149,-390,153,-389v13,-35,71,-27,68,12xm271,-1386v5,2,-151,395,-153,388v-14,35,-68,28,-68,-11v0,-12,148,-390,152,-389v13,-35,72,-27,69,12","w":696},"#":{"d":"1470,-485v0,23,-12,35,-35,35r-415,0r0,415v0,23,-12,35,-35,35v-23,0,-35,-12,-35,-35r0,-415r-380,0r0,415v0,23,-12,35,-35,35v-23,0,-35,-12,-35,-35r0,-415r-415,0v-23,0,-35,-12,-35,-35v0,-23,12,-35,35,-35r415,0r0,-380r-415,0v-23,0,-35,-12,-35,-35v0,-23,12,-35,35,-35r415,0r0,-415v0,-23,12,-35,35,-35v23,0,35,12,35,35r0,415r380,0r0,-415v0,-23,12,-35,35,-35v23,0,35,12,35,35r0,415r415,0v23,0,35,12,35,35v0,23,-12,35,-35,35r-415,0r0,380r415,0v23,0,35,12,35,35xm950,-520r0,-380r-380,0r0,380r380,0","w":1520},"$":{"d":"546,-797v149,48,274,201,275,387v0,186,-126,339,-275,387r0,288v0,23,-12,35,-35,35v-23,0,-35,-12,-35,-35r0,-270v-42,7,-88,7,-130,0r0,270v0,23,-12,35,-35,35v-23,0,-35,-12,-35,-35r0,-288v-102,-35,-176,-96,-221,-182v-14,-26,-1,-55,32,-53v11,0,20,6,29,18v52,71,105,119,160,142r0,-680v-109,-45,-200,-163,-200,-307v0,-144,91,-262,200,-307r0,-293v0,-23,12,-35,35,-35v23,0,35,12,35,35r0,271v42,-8,88,-8,130,0r0,-271v0,-23,12,-35,35,-35v23,0,35,12,35,35r0,293v45,18,160,107,160,157v0,37,-47,45,-66,17v-32,-47,-65,-78,-94,-95r0,516xm476,-815r0,-527v-42,-11,-88,-11,-130,0r0,514v29,2,72,6,130,13xm276,-857r0,-456v-173,90,-173,367,0,456xm546,-98v168,-58,274,-318,149,-498v-39,-56,-87,-99,-149,-126r0,624xm476,-76r0,-668v-29,-1,-73,-5,-130,-12r0,680v42,8,88,8,130,0","w":871},"%":{"d":"386,-1420v179,0,335,156,335,335v0,179,-156,335,-335,335v-180,0,-335,-156,-335,-335v0,-179,155,-335,335,-335xm1136,-670v179,0,335,156,335,335v0,179,-156,335,-335,335v-180,0,-335,-156,-335,-335v0,-179,155,-335,335,-335xm1435,-1421v35,-4,47,40,25,61r-1350,1350v-21,22,-60,10,-60,-25v0,-9,4,-18,11,-25r1350,-1350v7,-7,15,-11,24,-11xm386,-820v141,0,265,-124,265,-265v0,-141,-124,-265,-265,-265v-142,0,-265,123,-265,265v0,142,123,265,265,265xm1136,-70v141,0,265,-124,265,-265v0,-141,-124,-265,-265,-265v-142,0,-265,123,-265,265v0,142,123,265,265,265","w":1521},"&":{"d":"795,-1085v0,179,-156,340,-335,335v-13,0,-25,1,-38,2r688,688v22,21,11,61,-25,61v-9,0,-18,-4,-25,-11r-228,-228v-57,130,-197,235,-372,238v-221,4,-414,-190,-410,-410v3,-175,109,-315,239,-373v-106,-109,-156,-143,-164,-302v-9,-179,156,-335,335,-335v179,0,335,156,335,335xm460,-820v141,4,265,-124,265,-265v0,-141,-124,-265,-265,-265v-141,0,-265,124,-265,265v0,57,17,109,52,156v13,17,51,58,115,121v32,-8,65,-12,98,-12xm120,-410v-3,181,159,343,340,340v152,-3,278,-102,319,-222r-437,-437v-121,42,-219,166,-222,319","w":1171},"'":{"d":"271,-1386v5,2,-151,395,-153,388v-14,35,-68,28,-68,-11v0,-12,148,-390,152,-389v13,-35,72,-27,69,12","w":321,"k":{"s":321}},"(":{"d":"324,-1419v32,0,45,27,32,52v-314,596,-316,1168,-1,1763v13,25,2,53,-31,53v-19,0,-52,-50,-99,-151v-233,-493,-233,-1074,0,-1566v47,-101,80,-151,99,-151","w":411},")":{"d":"186,-1268v233,493,233,1074,0,1566v-47,101,-80,151,-99,151v-33,0,-45,-27,-32,-53v315,-595,314,-1167,0,-1763v-13,-25,0,-52,32,-52v19,0,52,50,99,151","w":411},"*":{"d":"1020,-935v0,24,-12,36,-35,35r-387,-9r280,267v22,21,11,61,-25,61v-9,0,-18,-4,-25,-11r-267,-280r9,387v1,23,-11,35,-35,35v-24,0,-36,-12,-35,-35r9,-387r-267,280v-21,22,-61,11,-61,-25v0,-9,4,-18,11,-25r280,-267r-387,9v-23,1,-35,-11,-35,-35v0,-24,12,-36,35,-35r387,9r-280,-267v-22,-21,-11,-61,25,-61v9,0,18,4,25,11r267,280r-9,-387v-1,-23,11,-35,35,-35v24,0,36,12,35,35r-9,387r267,-280v21,-22,61,-11,61,25v0,9,-4,18,-11,25r-280,267r387,-9v23,-1,35,11,35,35"},"+":{"d":"1020,-597v0,23,-12,35,-35,35r-415,-1r0,416v0,23,-12,34,-35,34v-23,0,-35,-11,-35,-34r0,-416r-415,1v-23,0,-35,-12,-35,-35v0,-23,12,-35,35,-35r415,0r0,-415v0,-23,12,-35,35,-35v23,0,35,12,35,35r0,415r415,0v23,0,35,12,35,35"},",":{"d":"253,-35v0,136,-67,278,-143,344v-23,20,-63,10,-60,-25v0,-8,4,-16,11,-25v81,-99,122,-197,122,-294v0,-23,12,-35,35,-35v23,0,35,12,35,35","w":303,"k":{"\"":303}},"-":{"d":"570,-485v0,23,-12,35,-35,35r-450,0v-23,0,-35,-12,-35,-35v0,-23,12,-35,35,-35r450,0v23,0,35,12,35,35","w":620,"k":{"7":263,"2":347}},"\u2010":{"d":"570,-485v0,23,-12,35,-35,35r-450,0v-23,0,-35,-12,-35,-35v0,-23,12,-35,35,-35r450,0v23,0,35,12,35,35","w":620},".":{"d":"124,0v-39,0,-74,-35,-74,-74v0,-47,25,-71,74,-71v49,0,74,24,74,71v0,39,-35,74,-74,74","w":248,"k":{"'":248,"\"":248}},"\/":{"d":"1021,-1386v0,13,-253,523,-759,1528r-145,290v-15,31,-67,23,-67,-15v0,-13,253,-523,759,-1528r145,-290v15,-31,67,-23,67,15","w":1071},"0":{"d":"535,-1195v282,0,485,304,485,598v0,294,-204,597,-485,597v-281,0,-485,-304,-485,-597v0,-295,203,-598,485,-598xm535,-70v242,0,415,-273,415,-527v0,-256,-172,-528,-415,-528v-243,0,-415,273,-415,528v0,255,173,527,415,527xm572,-597v0,25,-12,37,-37,37v-25,0,-37,-12,-37,-37v0,-23,12,-35,37,-35v25,0,37,12,37,35","k":{",":141}},"1":{"d":"895,-35v0,23,-12,35,-35,35r-550,0v-23,0,-35,-12,-35,-35v0,-23,12,-35,35,-35r240,0r0,-1006r-315,316v-21,22,-60,10,-60,-25v0,-9,4,-18,11,-25r370,-370v24,-29,64,-18,64,27r0,1083r240,0v23,0,35,12,35,35"},"2":{"d":"538,-1195v220,0,410,190,410,410v0,133,-41,230,-123,292r-558,423r646,0v23,0,35,12,35,35v0,23,-12,35,-35,35r-750,0v-47,3,-51,-41,-22,-63r642,-486v63,-48,95,-127,95,-236v0,-181,-159,-340,-340,-340v-183,0,-345,158,-340,340v0,23,-12,35,-35,35v-23,0,-35,-12,-35,-35v-6,-221,190,-410,410,-410"},"3":{"d":"883,-222v0,-202,-176,-378,-378,-378v-65,0,-131,20,-197,60v-66,40,-98,61,-95,61v-36,4,-45,-41,-22,-62r637,-584r-680,0v-23,0,-35,-12,-35,-35v0,-23,12,-35,35,-35r770,0v44,-2,48,38,23,61r-512,470v292,-49,520,179,524,442v3,240,-208,452,-448,447v-173,-3,-324,-102,-387,-223v-13,-26,0,-58,31,-53v39,6,41,42,71,76v76,86,170,130,285,130v202,0,378,-176,378,-377"},"4":{"d":"1021,-260v0,23,-12,35,-35,35r-265,0r0,415v0,23,-12,35,-35,35v-23,0,-35,-12,-35,-35r0,-415r-565,0v-37,2,-46,-30,-29,-54r600,-900v18,-32,64,-28,64,19r0,865r265,0v23,0,35,12,35,35xm651,-295r0,-749r-499,749r499,0"},"5":{"d":"920,-260v0,-223,-192,-415,-415,-415v-156,0,-289,87,-359,208v-21,38,-72,25,-65,-23r105,-675v3,-20,14,-30,34,-30r735,0v23,0,35,12,35,35v0,23,-12,35,-35,35r-705,0r-80,514v94,-89,206,-134,335,-134v261,0,485,224,485,485v0,261,-224,490,-485,485v-187,-4,-350,-110,-420,-242v-13,-26,-1,-58,31,-53v40,6,40,40,71,76v83,98,187,149,318,149v223,0,415,-192,415,-415"},"6":{"d":"50,-485v0,-502,433,-949,935,-935v23,0,35,12,35,35v0,23,-12,35,-35,35v-375,2,-680,238,-795,525v95,-97,210,-145,345,-145v261,0,485,224,485,485v0,261,-224,485,-485,485v-261,0,-485,-224,-485,-485xm535,-70v223,0,415,-192,415,-415v0,-223,-192,-415,-415,-415v-223,0,-415,192,-415,415v0,223,192,415,415,415"},"7":{"d":"984,-1195v35,-2,45,26,31,52r-725,1350v-13,30,-71,22,-66,-16v0,-6,1,-12,4,-18r698,-1298r-842,0v-23,0,-35,-12,-35,-35v0,-23,12,-35,35,-35r900,0"},"8":{"d":"692,-789v137,55,250,199,253,379v4,221,-190,410,-410,410v-221,0,-414,-190,-410,-410v3,-179,116,-325,253,-379v-119,-63,-178,-162,-178,-296v0,-179,156,-335,335,-335v179,0,335,156,335,335v0,134,-59,233,-178,296xm535,-820v141,0,265,-124,265,-265v0,-141,-124,-265,-265,-265v-141,0,-265,124,-265,265v0,141,124,265,265,265xm535,-70v181,0,340,-159,340,-340v0,-181,-159,-340,-340,-340v-181,0,-340,159,-340,340v0,181,159,340,340,340"},"9":{"d":"535,-1195v261,0,485,224,485,485v0,502,-433,949,-935,935v-23,0,-35,-12,-35,-35v0,-23,12,-35,35,-35v375,-2,680,-238,795,-525v-95,97,-210,145,-345,145v-261,0,-485,-224,-485,-485v0,-261,224,-485,485,-485xm535,-295v223,0,415,-192,415,-415v0,-223,-192,-415,-415,-415v-223,0,-415,192,-415,415v0,223,192,415,415,415"},":":{"d":"124,-825v-39,0,-74,-35,-74,-74v0,-47,25,-71,74,-71v49,0,74,24,74,71v0,39,-35,74,-74,74xm124,0v-39,0,-74,-35,-74,-74v0,-47,25,-71,74,-71v49,0,74,24,74,71v0,39,-35,74,-74,74","w":248},";":{"d":"218,-825v-39,0,-74,-35,-74,-74v0,-47,25,-71,74,-71v49,0,74,24,74,71v0,39,-35,74,-74,74xm253,-35v0,136,-67,278,-143,344v-23,20,-63,10,-60,-25v0,-8,4,-16,11,-25v81,-99,122,-197,122,-294v0,-23,12,-35,35,-35v23,0,35,12,35,35","w":362},"<":{"d":"1001,-179v31,13,23,72,-15,67v-14,2,-911,-445,-911,-451v-34,-19,-33,-50,0,-69v48,-27,208,-108,481,-243v278,-139,421,-208,430,-208v38,0,45,52,15,67r-838,418"},"=":{"d":"1020,-747v0,23,-12,35,-35,35r-900,0v-23,0,-35,-12,-35,-35v0,-23,12,-35,35,-35r900,0v23,0,35,12,35,35xm1020,-447v0,23,-12,35,-35,35r-900,0v-23,0,-35,-12,-35,-35v0,-23,12,-35,35,-35r900,0v23,0,35,12,35,35","k":{"\u00b7":1483}},">":{"d":"995,-632v33,19,34,50,0,69v-47,26,-208,107,-481,243v-278,139,-421,208,-430,208v-38,0,-45,-52,-15,-67r838,-419r-838,-418v-31,-13,-23,-67,15,-67v17,0,906,444,911,451"},"?":{"d":"385,-1420v179,0,335,156,335,335v0,179,-156,340,-335,335v-82,-2,-153,71,-153,153v0,81,72,152,153,152v42,0,125,-65,129,11v3,36,-84,59,-129,59v-119,0,-223,-104,-223,-222v0,-119,104,-226,223,-223v141,4,265,-124,265,-265v0,-141,-124,-265,-265,-265v-141,0,-269,124,-265,265v0,23,-12,35,-35,35v-23,0,-35,-12,-35,-35v-5,-179,156,-335,335,-335xm385,0v-39,0,-74,-35,-74,-74v0,-47,25,-71,74,-71v49,0,74,24,74,71v0,39,-35,74,-74,74","w":770},"@":{"d":"760,-1420v287,0,535,249,535,535v0,288,-247,535,-535,535v-193,0,-360,-167,-360,-360v0,-193,167,-360,360,-360v249,0,447,273,323,520v95,-91,142,-203,142,-335v0,-249,-216,-465,-465,-465v-344,0,-640,296,-640,640v0,344,296,640,640,640v156,0,308,-62,453,-188v24,-21,64,-10,61,25v0,9,-4,17,-11,24v-137,139,-305,209,-503,209v-381,0,-710,-329,-710,-710v0,-381,329,-710,710,-710xm761,-420v154,0,289,-136,289,-290v0,-156,-134,-290,-290,-290v-156,0,-290,134,-290,290v0,156,134,290,291,290","w":1345},"A":{"d":"1471,-34v5,38,-52,45,-67,15r-215,-431r-857,0r-215,431v-13,31,-72,23,-67,-15v-3,-12,674,-1368,676,-1361v18,-34,51,-33,69,0v35,65,157,305,364,721v208,419,312,632,312,640xm1154,-520r-393,-787r-394,787r787,0","w":1521,"k":{"w":172,"v":172,"Y":312,"W":395,"V":395,"T":260}},"B":{"d":"717,-789v138,55,250,199,253,380v4,221,-190,411,-411,410r-374,-1v-23,0,-35,-12,-35,-35r0,-1350v0,-23,12,-35,35,-35r375,0v179,-5,335,156,335,335v0,135,-59,233,-178,296xm560,-820v141,4,265,-124,265,-265v0,-141,-124,-265,-265,-265r-340,0r0,530r340,0xm560,-69v182,5,340,-158,340,-340v0,-182,-158,-341,-340,-341r-340,0r0,680","w":1020},"C":{"d":"120,-710v0,344,296,640,640,640v156,0,308,-61,452,-187v24,-21,64,-10,61,25v0,9,-4,17,-11,24v-133,139,-300,208,-502,208v-381,0,-710,-329,-710,-710v0,-381,329,-710,710,-710v202,0,368,70,502,208v21,22,10,64,-25,60v-8,0,-16,-4,-25,-11v-145,-125,-296,-187,-452,-187v-344,0,-640,296,-640,640","w":1323,"k":{"\u00b7":1298}},"D":{"d":"635,-1420v381,-11,710,329,710,710v0,381,-329,710,-710,710r-450,0v-23,0,-35,-12,-35,-35r0,-1350v0,-23,12,-35,35,-35r450,0xm635,-70v344,10,640,-296,640,-640v0,-344,-296,-640,-640,-640r-415,0r0,1280r415,0","w":1395,"k":{".":60,",":291}},"E":{"d":"970,-35v0,23,-12,35,-35,35r-750,0v-23,0,-35,-12,-35,-35r0,-1350v0,-23,12,-35,35,-35r750,0v23,0,35,12,35,35v0,23,-12,35,-35,35r-715,0r0,605r565,0v23,0,35,12,35,35v0,23,-12,35,-35,35r-565,0r0,605r715,0v23,0,35,12,35,35","w":1020},"F":{"d":"970,-1385v0,23,-12,35,-35,35r-715,0r0,605r565,0v23,0,35,12,35,35v0,23,-12,35,-35,35r-565,0r0,640v0,23,-12,35,-35,35v-23,0,-35,-12,-35,-35r0,-1350v0,-23,12,-35,35,-35r750,0v23,0,35,12,35,35","w":970,"k":{"a":176,".":200,",":885}},"G":{"d":"50,-710v0,-381,329,-710,710,-710v202,0,368,70,502,208v21,22,10,64,-25,60v-8,0,-16,-4,-25,-11v-145,-125,-296,-187,-452,-187v-344,0,-640,296,-640,640v0,344,296,640,640,640v171,0,319,-59,442,-177r0,-463v0,-23,12,-35,35,-35v23,0,35,12,35,35r0,478v0,9,-3,17,-10,24v-94,114,-303,204,-502,208v-381,7,-710,-329,-710,-710","w":1373},"H":{"d":"1120,-35v0,23,-12,35,-35,35v-23,0,-35,-12,-35,-35r0,-640r-830,0r0,640v0,23,-12,35,-35,35v-23,0,-35,-12,-35,-35r0,-1350v0,-23,12,-35,35,-35v23,0,35,12,35,35r0,640r830,0r0,-640v0,-23,12,-35,35,-35v23,0,35,12,35,35r0,1350","w":1270},"I":{"d":"220,-35v0,23,-12,35,-35,35v-23,0,-35,-12,-35,-35r0,-1350v0,-23,12,-35,35,-35v23,0,35,12,35,35r0,1350","w":370},"J":{"d":"10,380v141,0,265,-124,265,-265r0,-1500v0,-23,12,-35,35,-35v23,0,35,12,35,35r0,1500v5,179,-156,340,-335,335v-135,-3,-257,-79,-296,-187v0,-23,12,-34,37,-34v32,10,91,101,121,112v39,26,85,39,138,39","w":495},"K":{"d":"930,-1421v35,-4,47,40,25,61r-650,650r650,650v22,21,11,61,-25,61v-9,0,-17,-4,-24,-11r-675,-675v-7,-7,-11,-16,-11,-25r0,675v0,23,-12,35,-35,35v-23,0,-35,-12,-35,-35r0,-1350v0,-23,12,-35,35,-35v23,0,35,12,35,35r0,675v0,-9,4,-18,11,-25r675,-675v7,-7,15,-11,24,-11","w":1016,"k":{"w":176,"v":177}},"L":{"d":"970,-35v0,23,-12,35,-35,35r-750,0v-23,0,-35,-12,-35,-35r0,-1350v0,-23,12,-35,35,-35v23,0,35,12,35,35r0,1315r715,0v23,0,35,12,35,35","w":1020,"k":{"Y":388,"V":479,"O":242}},"M":{"d":"1619,-43v5,26,-8,44,-35,43v-18,0,-29,-9,-33,-27r-276,-1244r-405,944v-14,36,-55,36,-70,0r-404,-944r-277,1244v-4,18,-15,27,-33,27v-27,1,-41,-17,-35,-43r299,-1344v6,-41,54,-43,70,-6r415,969r416,-969v13,-38,61,-35,70,6","w":1670},"N":{"d":"1271,-35v2,39,-46,45,-67,17r-983,-1265r0,1248v0,23,-12,35,-35,35v-23,0,-35,-12,-35,-35r-1,-1350v-2,-39,46,-44,67,-17r984,1265r0,-1248v0,-23,12,-35,35,-35v23,0,35,12,35,35r0,1350","w":1421},"O":{"d":"760,-1420v381,0,710,329,710,710v0,381,-329,710,-710,710v-381,0,-710,-329,-710,-710v0,-381,329,-710,710,-710xm760,-70v344,0,640,-296,640,-640v0,-344,-296,-640,-640,-640v-344,0,-640,296,-640,640v0,344,296,640,640,640","w":1520,"k":{".":60,",":291}},"P":{"d":"560,-1420v221,-6,410,190,410,410v0,221,-190,410,-410,410r-305,0v-23,0,-35,-12,-35,-35v0,-23,12,-35,35,-35r305,0v183,5,340,-157,340,-340v0,-183,-157,-340,-340,-340r-340,0r0,1315v0,23,-12,35,-35,35v-23,0,-35,-12,-35,-35r0,-1350v0,-23,12,-35,35,-35r375,0","w":1020,"k":{"A":221,".":502,",":935}},"Q":{"d":"848,-5v87,211,309,383,587,385v23,0,35,12,35,35v0,23,-12,35,-35,35v-315,-1,-571,-205,-661,-450v-401,20,-724,-320,-724,-710v0,-381,329,-710,710,-710v381,0,710,329,710,710v0,362,-288,674,-622,705xm823,-73v310,-21,577,-307,577,-637v0,-344,-296,-640,-640,-640v-344,0,-640,296,-640,640v0,342,293,645,631,640v-17,-62,-26,-125,-26,-190v0,-23,12,-35,35,-35v23,0,35,12,35,35v0,64,9,126,28,187","w":1520},"R":{"d":"970,-1010v0,221,-190,416,-410,410r-141,0r541,540v22,21,11,61,-25,61v-9,0,-18,-4,-25,-11r-595,-596v-29,-24,-18,-64,27,-64r218,0v181,5,340,-159,340,-340v0,-181,-159,-340,-340,-340r-340,0r0,1315v0,23,-12,35,-35,35v-23,0,-35,-12,-35,-35r0,-1352v0,-22,12,-33,35,-33r375,0v221,-6,410,190,410,410","w":1021},"S":{"d":"411,-820v219,-6,410,190,410,410v0,220,-191,414,-410,410v-162,-3,-294,-93,-356,-205v-14,-25,0,-57,32,-53v34,5,36,36,62,66v67,81,155,122,262,122v181,0,340,-159,340,-340v0,-181,-158,-345,-339,-340v-180,5,-336,-156,-336,-335v0,-179,155,-335,335,-335v127,0,224,55,289,166v15,24,2,56,-31,53v-32,-10,-91,-99,-122,-110v-39,-26,-85,-39,-136,-39v-142,0,-265,123,-265,265v0,142,123,269,265,265","w":871},"T":{"d":"1020,-1385v0,23,-12,35,-35,35r-415,0r0,1315v0,23,-12,35,-35,35v-23,0,-35,-12,-35,-35r0,-1315r-415,0v-23,0,-35,-12,-35,-35v0,-23,12,-35,35,-35r900,0v23,0,35,12,35,35","w":1020,"k":{"y":210,"w":195,"u":205,"s":187,"r":252,"o":170,"e":170,"a":177,"A":210,";":268,":":172,".":152,"-":152,",":285}},"U":{"d":"585,-70v223,0,415,-192,415,-415r0,-900v0,-23,12,-35,35,-35v23,0,35,12,35,35r0,900v7,261,-224,485,-485,485v-261,0,-485,-224,-485,-485r0,-900v0,-23,12,-35,35,-35v23,0,35,12,35,35r0,900v-6,223,192,415,415,415","w":1170,"k":{",":171}},"V":{"d":"1471,-1386v3,12,-674,1368,-676,1361v-18,34,-51,33,-69,0v-35,-65,-157,-305,-364,-721v-208,-419,-312,-632,-312,-640v-5,-38,52,-45,67,-15r644,1288r643,-1288v13,-31,72,-23,67,15","w":1471,"k":{"r":48,"o":101,"e":101,"a":78,"A":345,";":77,".":330,"-":126,",":491}},"W":{"d":"2146,-1386v3,12,-674,1368,-676,1361v-17,33,-53,34,-69,0r-303,-607r-303,607v-16,34,-52,33,-69,0v-35,-65,-157,-305,-364,-721v-208,-419,-312,-632,-312,-640v-5,-38,52,-45,67,-15r644,1288r298,-597v-223,-444,-334,-669,-334,-676v-5,-38,52,-45,67,-15r306,613r306,-613v13,-31,72,-23,67,15v0,7,-111,232,-334,676r299,597r643,-1288v13,-31,72,-23,67,15","w":2146,"k":{"r":48,"o":101,"e":101,"a":78,"A":345,";":77,".":330,"-":126,",":491}},"X":{"d":"1163,-56v18,23,5,57,-28,57v-11,0,-20,-5,-27,-15r-497,-639r-498,639v-17,27,-67,16,-63,-21v0,-7,3,-14,8,-21r508,-654r-508,-654v-18,-23,-5,-57,28,-57v11,0,20,5,27,15r498,639r497,-639v17,-27,67,-16,63,21v0,7,-3,14,-8,21r-508,654","w":1221},"Y":{"d":"1135,-1421v33,0,46,34,28,57r-517,666r0,663v0,23,-12,35,-35,35v-23,0,-35,-12,-35,-35r0,-663r-518,-666v-18,-23,-5,-57,28,-57v11,0,20,5,27,15r498,639r497,-639v7,-10,16,-15,27,-15","w":1171,"k":{"u":99,"o":238,"e":238,"a":193,"A":262,";":175,":":78,".":228,"-":228,",":359}},"Z":{"d":"1135,-1421v37,-2,44,37,24,63r-1002,1288r979,0v23,0,35,12,35,35v0,23,-12,35,-35,35r-1050,1v-37,2,-44,-37,-24,-63r1002,-1288r-978,0v-23,0,-35,-12,-35,-35v0,-23,12,-35,35,-35","w":1221},"[":{"d":"670,415v0,23,-12,35,-35,35r-450,0v-23,0,-35,-12,-35,-35r0,-1800v0,-23,12,-35,35,-35r450,0v23,0,35,12,35,35v0,23,-12,35,-35,35r-415,0r0,1730r415,0v23,0,35,12,35,35","w":720},"\\":{"d":"1021,417v0,38,-52,46,-67,15r-145,-290v-506,-1005,-759,-1515,-759,-1528v0,-38,52,-46,67,-15r145,290v506,1005,759,1515,759,1528","w":1071},"]":{"d":"570,-1385r0,1800v0,23,-12,35,-35,35r-450,0v-23,0,-35,-12,-35,-35v0,-23,12,-35,35,-35r415,0r0,-1730r-415,0v-23,0,-35,-12,-35,-35v0,-23,12,-35,35,-35r450,0v23,0,35,12,35,35","w":720},"^":{"d":"710,-1110v22,21,11,61,-25,61v-9,0,-17,-4,-24,-11r-275,-276r-276,276v-21,22,-60,10,-60,-25v0,-9,4,-18,11,-25r300,-300v14,-15,36,-14,49,0","w":771},"_":{"d":"1020,-35v0,23,-12,35,-35,35r-900,0v-23,0,-35,-12,-35,-35v0,-23,12,-35,35,-35r900,0v23,0,35,12,35,35"},"`":{"d":"271,-1009v3,39,-54,45,-69,11v-7,-16,-35,-81,-82,-200v-47,-119,-70,-181,-70,-188v-2,-39,53,-46,68,-12v7,16,36,82,83,201v47,119,70,181,70,188","w":321},"a":{"d":"385,-970v179,0,335,156,335,335r0,600v0,23,-12,35,-35,35v-56,1,-29,-81,-35,-130v-67,87,-156,130,-265,130v-179,0,-335,-156,-335,-335v0,-179,156,-335,335,-335v109,0,198,43,265,130r0,-95v6,-195,-231,-345,-408,-221r-69,45v-35,3,-46,-39,-25,-61v61,-65,139,-98,237,-98xm385,-70v141,0,265,-124,265,-265v0,-141,-124,-265,-265,-265v-141,0,-265,124,-265,265v0,141,124,265,265,265","w":820},"b":{"d":"585,-970v261,-5,485,224,485,485v0,261,-224,485,-485,485v-261,0,-485,-224,-485,-485r0,-900v0,-23,12,-35,35,-35v23,0,35,12,35,35r0,649v76,-130,226,-230,415,-234xm585,-70v223,0,415,-192,415,-415v0,-223,-192,-415,-415,-415v-223,0,-415,192,-415,415v0,223,192,415,415,415","w":1120},"c":{"d":"50,-485v0,-261,224,-485,485,-485v141,0,254,48,343,142v21,22,10,63,-25,60v4,0,-29,-22,-99,-66v-70,-44,-143,-66,-219,-66v-223,0,-415,192,-415,415v0,223,192,415,415,415v76,0,149,-22,219,-66v70,-44,103,-66,98,-66v35,-3,46,39,25,61v-88,93,-201,141,-342,141v-261,0,-485,-224,-485,-485","w":939},"d":{"d":"535,-970v188,4,340,105,415,234r0,-649v0,-23,12,-35,35,-35v23,0,35,12,35,35r0,1350v0,23,-12,35,-35,35v-23,0,-35,-12,-35,-35r0,-199v-76,130,-226,230,-415,234v-261,5,-485,-224,-485,-485v0,-261,224,-490,485,-485xm535,-70v223,0,415,-192,415,-415v0,-223,-192,-415,-415,-415v-223,0,-415,192,-415,415v0,223,192,415,415,415","w":1170},"e":{"d":"50,-485v0,-313,313,-574,647,-456v83,29,263,144,262,232v0,13,-6,23,-17,29r-748,432v83,119,196,178,341,178v125,0,228,-47,309,-138v25,-28,38,-80,80,-87v32,-5,45,28,31,53v-72,133,-230,238,-420,242v-261,5,-485,-224,-485,-485xm535,-900v-284,0,-511,306,-376,592r717,-414v-83,-119,-196,-178,-341,-178","w":1010},"f":{"d":"275,-1160v-4,-139,121,-260,260,-260v80,0,140,26,184,76v21,23,11,63,-25,60v-15,-7,-118,-78,-159,-66v-101,-3,-190,89,-190,190r0,190r190,0v23,0,35,12,35,35v0,23,-12,35,-35,35r-190,0r0,865v0,23,-12,35,-35,35v-23,0,-35,-12,-35,-35r0,-865r-190,0v-23,0,-35,-12,-35,-35v0,-23,12,-35,35,-35r190,0r0,-190","w":730},"g":{"d":"125,-635v0,-179,156,-335,335,-335r375,0v23,0,35,12,35,35v0,23,-12,35,-35,35r-170,0v87,67,130,156,130,265v0,134,-59,233,-178,296v137,55,250,199,253,379v4,221,-190,410,-410,410v-221,0,-416,-190,-410,-410v0,-23,12,-35,35,-35v23,0,35,12,35,35v-5,181,159,340,340,340v181,0,340,-159,340,-340v0,-181,-159,-345,-339,-340v-180,5,-336,-156,-336,-335xm460,-370v141,0,265,-124,265,-265v0,-141,-124,-265,-265,-265v-141,0,-265,124,-265,265v0,141,124,265,265,265","w":920},"h":{"d":"485,-970v179,0,335,156,335,335r0,600v0,23,-12,35,-35,35v-23,0,-35,-12,-35,-35r0,-600v4,-141,-124,-265,-265,-265v-141,0,-265,124,-265,265r0,600v0,23,-12,35,-35,35v-23,0,-35,-12,-35,-35r0,-1350v0,-23,12,-35,35,-35v23,0,35,12,35,35r0,545v67,-87,156,-130,265,-130","w":920},"i":{"d":"185,-1420v39,0,74,35,74,74v0,47,-25,71,-74,71v-49,0,-74,-24,-74,-71v0,-39,35,-74,74,-74xm220,-935r0,900v0,23,-12,35,-35,35v-23,0,-35,-12,-35,-35r0,-900v0,-23,12,-35,35,-35v23,0,35,12,35,35","w":370},"j":{"d":"185,-1420v39,0,74,35,74,74v0,47,-25,71,-74,71v-49,0,-74,-24,-74,-71v0,-39,35,-74,74,-74xm-40,380v101,3,190,-89,190,-190r0,-1125v0,-23,12,-35,35,-35v23,0,35,12,35,35r0,1125v4,139,-121,260,-260,260v-79,0,-139,-26,-184,-76v-21,-23,-10,-63,25,-60v15,7,117,78,159,66","w":370},"k":{"d":"730,-60v22,21,11,61,-25,61v-9,0,-18,-4,-25,-11r-450,-450v-16,-14,-14,-36,0,-50r450,-450v21,-22,61,-11,61,25v0,9,-4,18,-11,25r-426,425xm220,-1385r0,1350v0,23,-12,35,-35,35v-23,0,-35,-12,-35,-35r0,-1350v0,-23,12,-35,35,-35v23,0,35,12,35,35","w":791},"l":{"d":"170,-260v-3,101,89,193,190,190v23,0,35,12,35,35v0,23,-12,35,-35,35v-139,4,-260,-121,-260,-260r0,-1125v0,-23,12,-35,35,-35v23,0,35,12,35,35r0,1125","w":445},"m":{"d":"1085,-970v179,0,335,156,335,335r0,600v0,23,-12,35,-35,35v-23,0,-35,-12,-35,-35r0,-600v4,-141,-124,-265,-265,-265v-141,0,-265,124,-265,265r0,600v0,23,-12,35,-35,35v-23,0,-35,-12,-35,-35r0,-600v4,-141,-124,-265,-265,-265v-141,0,-265,124,-265,265r0,600v0,23,-12,35,-35,35v-23,0,-35,-12,-35,-35r0,-900v0,-23,12,-35,35,-35v56,-1,29,81,35,130v67,-87,156,-130,265,-130v138,0,238,62,300,186v62,-124,162,-186,300,-186","w":1520},"n":{"d":"485,-970v179,0,335,156,335,335r0,600v0,23,-12,35,-35,35v-23,0,-35,-12,-35,-35r0,-600v4,-141,-124,-265,-265,-265v-141,0,-265,124,-265,265r0,600v0,23,-12,35,-35,35v-23,0,-35,-12,-35,-35r0,-900v0,-23,12,-35,35,-35v56,-1,29,81,35,130v67,-87,156,-130,265,-130","w":920},"o":{"d":"535,-970v261,0,485,224,485,485v0,261,-224,485,-485,485v-261,0,-485,-224,-485,-485v0,-261,224,-485,485,-485xm535,-70v223,0,415,-192,415,-415v0,-223,-192,-415,-415,-415v-223,0,-415,192,-415,415v0,223,192,415,415,415"},"p":{"d":"580,-970v261,-5,485,224,485,485v0,261,-224,490,-485,485v-188,-4,-340,-105,-415,-234r0,649v0,23,-12,35,-35,35v-23,0,-35,-12,-35,-35r0,-1350v0,-23,12,-35,35,-35v23,0,35,12,35,35r0,199v76,-130,226,-230,415,-234xm580,-70v223,0,415,-192,415,-415v0,-223,-192,-415,-415,-415v-223,0,-415,192,-415,415v0,223,192,415,415,415","w":1115},"q":{"d":"535,-970v188,4,340,105,415,234r0,-199v0,-23,12,-35,35,-35v23,0,35,12,35,35r0,1350v0,23,-12,35,-35,35v-23,0,-35,-12,-35,-35r0,-649v-76,130,-226,230,-415,234v-261,5,-485,-224,-485,-485v0,-261,224,-490,485,-485xm535,-70v223,0,415,-192,415,-415v0,-223,-192,-415,-415,-415v-223,0,-415,192,-415,415v0,223,192,415,415,415","w":1170},"r":{"d":"410,-900v-101,0,-190,89,-190,190r0,675v0,23,-12,35,-35,35v-23,0,-35,-12,-35,-35r0,-900v0,-23,12,-35,35,-35v24,0,36,28,35,83v113,-134,370,-101,421,66v0,23,-12,34,-37,34v-5,0,-25,-19,-62,-57v-37,-38,-81,-56,-132,-56","w":691,"k":{".":173,"-":173,",":605}},"s":{"d":"339,-595v156,-4,289,142,289,298v0,159,-138,301,-297,297v-138,-3,-255,-88,-281,-205v-9,-38,54,-46,68,-11v34,85,111,146,213,146v122,0,227,-106,227,-227v0,-128,-111,-231,-238,-228v-117,3,-217,-106,-217,-222v0,-119,104,-223,223,-223v85,0,151,36,192,110v14,25,1,56,-31,53v-5,0,-23,-16,-53,-47v-30,-31,-67,-46,-108,-46v-82,0,-153,71,-153,153v0,90,76,154,166,152","w":678},"t":{"d":"535,-70v42,11,143,-58,159,-66v35,-3,46,37,25,60v-44,50,-104,76,-184,76v-139,0,-260,-121,-260,-260r0,-640r-190,0v-23,0,-35,-12,-35,-35v0,-23,12,-35,35,-35r190,0r0,-415v0,-23,12,-35,35,-35v23,0,35,12,35,35r0,415r190,0v23,0,35,12,35,35v0,23,-12,35,-35,35r-190,0r0,640v-3,101,89,193,190,190","w":780},"u":{"d":"435,-70v141,0,265,-124,265,-265r0,-600v0,-23,12,-35,35,-35v23,0,35,12,35,35r0,600v5,179,-156,335,-335,335v-179,0,-335,-156,-335,-335r0,-600v0,-23,12,-35,35,-35v23,0,35,12,35,35r0,600v-4,141,124,265,265,265","w":870},"v":{"d":"1021,-936v0,17,-444,906,-451,911v-19,33,-50,34,-69,0v-26,-47,-107,-208,-243,-481v-139,-278,-208,-421,-208,-430v0,-38,52,-45,67,-15r419,838r418,-838v13,-31,67,-23,67,15","w":1071,"k":{".":155,",":316}},"w":{"d":"1621,-936v0,5,-150,309,-451,911v-16,33,-53,34,-69,0r-265,-531r-266,531v-16,33,-53,34,-69,0v-301,-602,-451,-906,-451,-911v-5,-38,52,-45,67,-15r419,838r261,-521v-98,-195,-147,-296,-147,-302v-5,-38,52,-45,67,-15r419,838r418,-838v13,-31,72,-23,67,15","w":1671,"k":{".":156,",":316}},"x":{"d":"863,-57v18,23,6,58,-28,58v-10,0,-19,-5,-26,-14r-348,-417r-347,417v-18,26,-67,15,-63,-22v0,-8,3,-15,9,-22r355,-428r-356,-428v-19,-22,-7,-58,27,-58v11,0,20,5,27,14r348,417r347,-417v18,-26,66,-15,62,22v0,8,-3,15,-8,22r-356,428","w":921},"y":{"d":"435,-70v141,0,265,-124,265,-265r0,-600v0,-23,12,-35,35,-35v23,0,35,12,35,35r0,1050v5,179,-156,335,-335,335v-131,0,-229,-55,-290,-166v-14,-25,-1,-55,32,-53v32,11,92,99,121,110v39,26,85,39,137,39v141,0,265,-124,265,-265r0,-245v-67,87,-156,130,-265,130v-179,0,-335,-156,-335,-335r0,-600v0,-23,12,-35,35,-35v23,0,35,12,35,35r0,600v-4,141,124,265,265,265","w":920},"z":{"d":"835,-971v37,-2,44,38,23,64r-698,837r676,0v23,0,35,12,35,35v0,23,-12,35,-35,35r-750,1v-37,2,-44,-38,-23,-64r698,-837r-675,0v-23,0,-35,-12,-35,-35v0,-23,12,-35,35,-35","w":921},"{":{"d":"345,190v-3,101,89,193,190,190v23,0,35,12,35,35v0,23,-12,35,-35,35v-139,4,-260,-121,-260,-260r0,-450v3,-101,-89,-193,-190,-190v-23,0,-35,-12,-35,-35v0,-23,12,-35,35,-35v101,3,190,-89,190,-190r0,-450v-4,-139,121,-264,260,-260v23,0,35,12,35,35v0,23,-12,35,-35,35v-101,-3,-190,89,-190,190r0,450v0,100,-43,175,-130,225v87,50,130,125,130,225r0,450","w":620},"|":{"d":"220,415v0,23,-12,35,-35,35v-23,0,-35,-12,-35,-35r0,-1800v0,-23,12,-35,35,-35v23,0,35,12,35,35r0,1800","w":335},"}":{"d":"345,-710v-3,101,89,193,190,190v23,0,35,12,35,35v0,23,-12,35,-35,35v-101,-3,-190,89,-190,190r0,450v4,139,-121,264,-260,260v-23,0,-35,-12,-35,-35v0,-23,12,-35,35,-35v101,3,190,-89,190,-190r0,-450v0,-100,43,-175,130,-225v-87,-50,-130,-125,-130,-225r0,-450v3,-101,-89,-193,-190,-190v-23,0,-35,-12,-35,-35v0,-23,12,-35,35,-35v139,-4,260,121,260,260r0,450","w":620},"~":{"d":"50,-484v19,-76,90,-111,185,-111v49,0,104,25,163,75v59,50,104,75,137,75v47,0,83,-12,106,-37v23,-25,38,-38,43,-38v25,0,37,11,37,34v-20,74,-90,112,-186,111v-49,0,-103,-25,-162,-75v-59,-50,-105,-75,-138,-75v-47,0,-82,12,-105,37v-23,25,-38,38,-44,38v-24,0,-36,-11,-36,-34","w":771},"\u00a1":{"d":"185,-970v39,0,74,35,74,74v0,47,-25,71,-74,71v-49,0,-74,-24,-74,-71v0,-39,35,-74,74,-74xm220,415v0,23,-12,35,-35,35v-23,0,-35,-12,-35,-35r0,-975v0,-23,12,-35,35,-35v23,0,35,12,35,35r0,975","w":370},"\u00a2":{"d":"670,-951v53,13,219,98,219,147v0,35,-37,45,-61,25v-61,-51,-92,-73,-158,-99r0,786v42,-15,96,-46,158,-99v24,-20,60,-10,60,25v0,49,-166,135,-218,147r0,234v0,23,-12,35,-35,35v-23,0,-35,-12,-35,-35r0,-219v-42,5,-88,5,-130,0r0,219v0,23,-12,35,-35,35v-23,0,-35,-12,-35,-35r0,-234v-189,-49,-350,-239,-350,-466v-1,-227,162,-417,350,-466r0,-234v0,-23,12,-35,35,-35v23,0,35,12,35,35r0,219v42,-5,88,-5,130,0r0,-219v0,-23,12,-35,35,-35v23,0,35,12,35,35r0,234xm600,-75r0,-820v-42,-7,-88,-7,-130,0r0,820v42,7,88,7,130,0xm400,-878v-151,49,-280,204,-280,393v0,189,129,344,280,393r0,-786","w":939},"\u00a3":{"d":"536,-1350v-101,-3,-190,89,-190,190r0,190r190,0v23,0,35,12,35,35v0,23,-12,35,-35,35r-190,0r0,230r190,0v23,0,35,12,35,35v0,23,-12,35,-35,35r-190,0r0,340v0,75,-27,139,-82,190r722,0v23,0,35,12,35,35v0,23,-12,35,-35,35r-900,0v-24,0,-36,-12,-36,-35v0,-23,12,-35,36,-35v102,3,190,-89,190,-190r0,-340r-190,0v-23,0,-35,-12,-35,-35v0,-23,12,-35,35,-35r190,0r0,-230r-190,0v-23,0,-35,-12,-35,-35v0,-23,12,-35,35,-35r190,0r0,-190v-4,-139,121,-260,260,-260v79,0,140,26,184,76v21,23,11,63,-25,60v-15,-7,-117,-78,-159,-66","w":1071},"\u00a4":{"d":"1021,-935v0,11,-40,55,-119,133v159,173,159,461,0,634v79,78,119,122,119,133v0,24,-12,36,-36,36v-10,0,-54,-40,-132,-119v-175,158,-460,157,-635,0v-77,79,-121,119,-132,119v-24,0,-36,-12,-36,-36v0,-11,40,-55,119,-133v-157,-173,-157,-461,0,-634v-79,-78,-119,-122,-119,-133v0,-24,12,-36,36,-36v11,0,55,40,132,119v175,-157,460,-158,635,0v78,-79,122,-119,132,-119v24,0,36,12,36,36xm536,-70v222,0,415,-192,415,-415v0,-223,-193,-415,-415,-415v-223,0,-415,192,-415,415v0,223,192,415,415,415","w":1071},"\u00a5":{"d":"1135,-1421v33,0,46,34,28,57r-481,619r229,0v23,0,35,12,35,35v0,23,-12,35,-35,35r-265,0r0,230r265,0v23,0,35,12,35,35v0,23,-12,35,-35,35r-265,0r0,340v0,23,-12,35,-35,35v-23,0,-35,-12,-35,-35r0,-340r-265,0v-23,0,-35,-12,-35,-35v0,-23,12,-35,35,-35r265,0r0,-230r-265,0v-23,0,-35,-12,-35,-35v0,-23,12,-35,35,-35r228,0r-481,-619v-18,-23,-5,-57,28,-57v11,0,20,5,27,15r498,639r497,-639v7,-10,16,-15,27,-15","w":1171},"\u00a6":{"d":"220,-635v0,23,-12,35,-35,35v-23,0,-35,-12,-35,-35r0,-750v0,-23,12,-35,35,-35v23,0,35,12,35,35r0,750xm220,415v0,23,-12,35,-35,35v-23,0,-35,-12,-35,-35r0,-750v0,-23,12,-35,35,-35v23,0,35,12,35,35r0,750","w":370},"\u00a7":{"d":"385,-820v179,-5,335,156,335,335v0,138,-62,238,-186,300v124,62,186,162,186,300v0,179,-156,335,-335,335v-129,0,-227,-56,-291,-169v-14,-24,0,-55,32,-52v31,11,92,101,121,112v39,26,85,39,138,39v141,0,265,-124,265,-265v0,-141,-124,-269,-265,-265v-179,5,-335,-156,-335,-335v0,-138,62,-238,186,-300v-124,-62,-186,-162,-186,-300v0,-179,156,-335,335,-335v129,0,227,56,291,169v14,24,0,55,-32,52v-32,-11,-90,-101,-121,-112v-39,-26,-85,-39,-138,-39v-141,0,-265,124,-265,265v0,141,124,269,265,265xm385,-220v141,0,265,-124,265,-265v0,-141,-124,-265,-265,-265v-141,0,-265,124,-265,265v0,141,124,265,265,265","w":770},"\u00a8":{"d":"645,-1273v0,49,-24,73,-73,73v-48,0,-72,-24,-72,-73v0,-48,24,-72,72,-72v49,0,73,24,73,72xm195,-1273v0,49,-24,73,-73,73v-48,0,-72,-24,-72,-73v0,-48,24,-72,72,-72v49,0,73,24,73,72","w":695},"\u00a9":{"d":"760,-1420v381,0,710,329,710,710v0,381,-329,710,-710,710v-381,0,-710,-329,-710,-710v0,-381,329,-710,710,-710xm760,-70v344,0,640,-296,640,-640v0,-344,-296,-640,-640,-640v-344,0,-640,296,-640,640v0,344,296,640,640,640xm457,-710v0,223,265,393,465,253r76,-50v35,-3,46,38,25,61v-66,72,-153,109,-263,109v-200,0,-373,-173,-373,-373v0,-200,173,-372,373,-372v110,0,198,36,263,108v22,23,10,64,-25,61v-63,-42,-147,-99,-238,-99v-162,0,-303,140,-303,302","w":1520},"\u00aa":{"d":"310,-1420v135,0,260,109,260,245r0,420v0,23,-12,35,-35,35v-24,0,-36,-26,-35,-78v-51,52,-115,78,-190,78v-136,0,-260,-111,-260,-245v0,-135,124,-245,260,-245v75,0,139,26,190,78v17,-133,-77,-215,-190,-218v-44,-10,-141,53,-159,62v-36,3,-46,-38,-24,-61v46,-46,106,-71,183,-71xm570,-485v0,23,-12,35,-35,35r-450,0v-23,0,-35,-12,-35,-35v0,-23,12,-35,35,-35r450,0v23,0,35,12,35,35xm310,-790v98,0,190,-77,190,-175v0,-98,-93,-175,-190,-175v-98,0,-190,77,-190,175v0,98,93,175,190,175","w":620},"\u00ab":{"d":"721,-34v5,38,-52,45,-67,15v-150,-307,-229,-461,-229,-466v0,-5,79,-159,229,-466v15,-30,72,-23,67,15v0,7,-74,157,-221,451v147,294,221,444,221,451xm346,-34v5,38,-52,45,-67,15v-150,-307,-229,-461,-229,-466v0,-5,79,-159,229,-466v15,-30,72,-23,67,15v0,7,-74,157,-221,451v147,295,221,445,221,451","w":771},"\u00ac":{"d":"920,-35v0,23,-12,35,-35,35v-23,0,-35,-12,-35,-35r0,-415r-765,0v-23,0,-35,-12,-35,-35v0,-23,12,-35,35,-35r800,0v23,0,35,12,35,35r0,450"},"\u00ae":{"d":"760,-1420v381,0,710,329,710,710v0,381,-329,710,-710,710v-381,0,-710,-329,-710,-710v0,-381,329,-710,710,-710xm760,-70v344,0,640,-296,640,-640v0,-344,-296,-640,-640,-640v-344,0,-640,296,-640,640v0,344,296,640,640,640xm1020,-860v-2,128,-108,236,-251,223r241,240v22,21,10,60,-25,60v-9,0,-18,-4,-25,-11r-300,-300v-24,-22,-18,-59,25,-59r112,0v82,2,153,-71,153,-153v0,-82,-71,-152,-153,-152r-152,0r0,640v0,23,-12,35,-35,35v-23,0,-35,-12,-35,-35r0,-675v0,-23,12,-35,35,-35r187,0v119,-3,225,103,223,222","w":1520},"\u00b0":{"d":"385,-1420v179,0,335,156,335,335v0,179,-156,335,-335,335v-179,0,-335,-156,-335,-335v0,-179,156,-335,335,-335xm385,-820v141,0,265,-124,265,-265v0,-141,-124,-265,-265,-265v-141,0,-265,124,-265,265v0,141,124,265,265,265","w":770},"\u00b1":{"d":"1020,-785v0,23,-12,35,-35,35r-415,0r0,415v0,23,-12,35,-35,35v-23,0,-35,-12,-35,-35r0,-415r-415,0v-23,0,-35,-12,-35,-35v0,-23,12,-35,35,-35r415,0r0,-415v0,-23,12,-35,35,-35v23,0,35,12,35,35r0,415r415,0v23,0,35,12,35,35xm1020,-35v0,23,-12,35,-35,35r-900,0v-23,0,-35,-12,-35,-35v0,-23,12,-35,35,-35r900,0v23,0,35,12,35,35"},"\u00b2":{"d":"372,-1420v166,0,316,134,316,298v0,97,-32,168,-96,213r-392,277r453,0v23,0,35,12,35,35v0,23,-12,35,-35,35r-563,0v-47,3,-50,-43,-20,-64r481,-340v45,-32,67,-84,67,-156v0,-126,-118,-228,-246,-228v-129,0,-251,102,-247,228v0,23,-12,35,-35,35v-23,0,-35,-12,-35,-35v-5,-164,151,-298,317,-298","w":738},"\u00b3":{"d":"628,-729v0,-193,-243,-327,-420,-211r-75,43v-36,4,-43,-43,-20,-63r455,-390r-483,0v-23,0,-35,-12,-35,-35v0,-23,12,-35,35,-35r578,0v46,-3,50,39,23,62r-359,306v204,-14,368,138,371,323v4,239,-286,408,-515,282v-61,-34,-110,-72,-133,-138v0,-23,12,-35,37,-35v31,11,92,97,124,107v173,106,417,-22,417,-216","w":753},"\u00b4":{"d":"386,-1421v39,-4,48,53,15,67v-11,10,-304,158,-317,155v-38,3,-46,-53,-14,-67v11,-10,303,-157,316,-155","w":471},"\u00b5":{"d":"485,-70v141,0,265,-124,265,-265r0,-600v0,-23,12,-35,35,-35v23,0,35,12,35,35r0,900v0,23,-12,35,-35,35v-56,1,-29,-81,-35,-130v-124,173,-407,173,-530,0r0,545v0,23,-12,35,-35,35v-23,0,-35,-12,-35,-35r0,-1350v0,-23,12,-35,35,-35v23,0,35,12,35,35r0,600v-4,141,124,265,265,265","w":970},"\u00b6":{"d":"50,-1085v0,-179,156,-335,335,-335r450,0v23,0,35,12,35,35r0,1350v0,23,-12,35,-35,35v-23,0,-35,-12,-35,-35r0,-1315r-380,0r0,1315v0,23,-12,35,-35,35v-23,0,-35,-12,-35,-35r0,-717v-160,-12,-300,-161,-300,-333xm350,-1348v-123,13,-230,129,-230,263v0,134,107,251,230,263r0,-526","w":1020},"\u00b7":{"d":"535,-523v-39,0,-74,-35,-74,-74v0,-47,25,-71,74,-71v49,0,74,24,74,71v0,39,-35,74,-74,74"},"\u00b8":{"d":"281,-70v139,-4,260,121,260,260v0,139,-121,260,-260,260v-103,0,-178,-44,-226,-131v-13,-25,0,-55,32,-52v4,0,25,19,63,57v38,38,81,56,131,56v101,0,190,-89,190,-190v0,-101,-89,-193,-190,-190v-23,0,-35,-12,-35,-35v0,-23,12,-35,35,-35","w":591},"\u00b9":{"d":"496,-597v0,23,-12,35,-35,35r-300,0v-23,0,-35,-12,-35,-35v0,-23,12,-35,35,-35r115,0r0,-672r-167,155v-21,21,-59,8,-59,-26v0,-10,4,-19,12,-26r220,-205v24,-28,64,-17,64,28r0,746r115,0v23,0,35,12,35,35","w":546},"\u00ba":{"d":"422,-1420v196,0,373,157,373,350v0,193,-177,350,-373,350v-195,0,-372,-157,-372,-350v0,-193,177,-350,372,-350xm795,-485v0,23,-12,35,-35,35r-675,0v-23,0,-35,-12,-35,-35v0,-23,12,-35,35,-35r675,0v23,0,35,12,35,35xm422,-790v156,0,303,-124,303,-280v0,-155,-145,-280,-303,-280v-157,0,-302,126,-302,280v0,154,145,280,302,280","w":845},"\u00bb":{"d":"721,-485v0,5,-79,159,-229,466v-15,30,-72,23,-67,-15v0,-7,74,-157,221,-451v-147,-294,-221,-444,-221,-451v-5,-38,52,-45,67,-15v150,307,229,461,229,466xm346,-485v0,5,-79,159,-229,466v-15,30,-72,23,-67,-15v0,-7,74,-157,221,-451v-147,-294,-221,-444,-221,-451v-5,-38,52,-45,67,-15v150,307,229,461,229,466","w":771},"\u00bc":{"d":"1498,-1421v36,0,47,40,25,61r-1350,1350v-21,22,-61,11,-61,-25v0,-9,4,-18,11,-25r1350,-1350v7,-7,16,-11,25,-11xm1533,-192v0,23,-12,35,-35,35r-190,0r0,279v0,24,-12,36,-35,36v-23,0,-35,-12,-35,-36r0,-279r-415,0v-39,2,-46,-31,-28,-56r450,-630v19,-32,63,-26,63,21r0,595r190,0v23,0,35,12,35,35xm496,-597v0,23,-12,35,-35,35r-300,0v-23,0,-35,-12,-35,-35v0,-23,12,-35,35,-35r115,0r0,-672r-167,155v-21,21,-59,8,-59,-26v0,-10,4,-19,12,-26r220,-205v24,-28,64,-17,64,28r0,746r115,0v23,0,35,12,35,35xm1238,-227r0,-486r-347,486r347,0","w":1584},"\u00bd":{"d":"1217,-857v165,0,316,134,316,297v0,97,-32,168,-96,213r-391,277r452,0v23,0,35,12,35,35v0,23,-12,35,-35,35r-562,0v-48,3,-51,-43,-21,-64r482,-340v44,-31,66,-83,66,-156v0,-126,-118,-227,-246,-227v-129,0,-250,101,-246,227v0,23,-12,35,-35,35v-23,0,-35,-12,-35,-35v-5,-164,150,-297,316,-297xm1498,-1421v36,0,47,40,25,61r-1350,1350v-21,22,-61,11,-61,-25v0,-9,4,-18,11,-25r1350,-1350v7,-7,16,-11,25,-11xm496,-597v0,23,-12,35,-35,35r-300,0v-23,0,-35,-12,-35,-35v0,-23,12,-35,35,-35r115,0r0,-672r-167,155v-21,21,-59,8,-59,-26v0,-10,4,-19,12,-26r220,-205v24,-28,64,-17,64,28r0,746r115,0v23,0,35,12,35,35","w":1584},"\u00be":{"d":"1700,-1421v36,0,47,40,25,61r-1350,1350v-21,22,-60,10,-60,-25v0,-9,4,-18,11,-25r1350,-1350v7,-7,15,-11,24,-11xm1735,-192v0,23,-12,35,-35,35r-190,0r0,279v0,24,-12,36,-35,36v-23,0,-35,-12,-35,-36r0,-279r-415,0v-39,2,-46,-31,-28,-56r450,-630v19,-31,63,-27,63,21r0,595r190,0v23,0,35,12,35,35xm628,-729v0,-194,-243,-327,-420,-211r-75,43v-36,4,-43,-43,-20,-63r455,-390r-483,0v-23,0,-35,-12,-35,-35v0,-23,12,-35,35,-35r578,0v46,-3,50,39,23,62r-359,306v202,-17,371,139,371,323v0,239,-286,408,-515,282v-61,-34,-110,-72,-133,-138v0,-23,12,-35,37,-35v31,11,92,97,124,107v173,106,417,-22,417,-216xm1440,-227r0,-486r-347,486r347,0","w":1786},"\u00bf":{"d":"385,-970v39,0,74,35,74,74v0,47,-25,71,-74,71v-49,0,-74,-24,-74,-71v0,-39,35,-74,74,-74xm385,380v141,0,269,-124,265,-265v0,-23,12,-35,35,-35v23,0,35,12,35,35v5,179,-156,335,-335,335v-179,0,-335,-156,-335,-335v0,-179,156,-340,335,-335v81,3,152,-71,152,-152v0,-82,-70,-153,-152,-153v-42,0,-125,65,-129,-11v-3,-36,84,-59,129,-59v119,0,222,104,222,223v0,118,-103,226,-222,222v-141,-4,-265,124,-265,265v0,141,124,265,265,265","w":770},"\u00c0":{"d":"941,-1716v32,14,24,70,-14,67v-13,3,-308,-146,-317,-155v-32,-14,-24,-70,14,-67v13,-3,308,146,317,155xm1471,-34v5,38,-52,45,-67,15r-215,-431r-857,0r-215,431v-13,31,-72,23,-67,-15v-3,-12,674,-1368,676,-1361v18,-34,51,-33,69,0v35,65,157,305,364,721v208,419,312,632,312,640xm1154,-520r-393,-787r-394,787r787,0","w":1521},"\u00c1":{"d":"927,-1871v38,-3,46,53,14,67v-11,10,-303,158,-317,155v-38,3,-46,-53,-14,-67v11,-10,303,-158,317,-155xm1471,-34v5,38,-52,45,-67,15r-215,-431r-857,0r-215,431v-13,31,-72,23,-67,-15v-3,-12,674,-1368,676,-1361v18,-34,51,-33,69,0v35,65,157,305,364,721v208,419,312,632,312,640xm1154,-520r-393,-787r-394,787r787,0","w":1521},"\u00c2":{"d":"1005,-1714v28,16,18,69,-19,65v-7,0,-13,-2,-20,-7r-205,-137r-206,137v-24,16,-55,3,-55,-30v0,-11,5,-21,16,-28r222,-148v18,-12,27,-12,45,0xm1471,-34v5,38,-52,45,-67,15r-215,-431r-857,0r-215,431v-13,31,-72,23,-67,-15v-3,-12,674,-1368,676,-1361v18,-34,51,-33,69,0v35,65,157,305,364,721v208,419,312,632,312,640xm1154,-520r-393,-787r-394,787r787,0","w":1521},"\u00c3":{"d":"440,-1759v20,-74,89,-112,186,-111v49,0,103,25,162,75v59,50,104,75,137,75v47,0,83,-13,106,-38v23,-25,38,-37,43,-37v25,0,37,11,37,34v-19,76,-90,111,-186,111v-49,0,-102,-25,-161,-75v-59,-50,-105,-75,-138,-75v-47,0,-83,13,-106,38v-23,25,-38,37,-43,37v-25,0,-37,-11,-37,-34xm1471,-34v5,38,-52,45,-67,15r-215,-431r-857,0r-215,431v-13,31,-72,23,-67,-15v-3,-12,674,-1368,676,-1361v18,-34,51,-33,69,0v35,65,157,305,364,721v208,419,312,632,312,640xm1154,-520r-393,-787r-394,787r787,0","w":1521},"\u00c4":{"d":"1059,-1723v0,49,-24,73,-73,73v-48,0,-72,-24,-72,-73v0,-48,24,-72,72,-72v49,0,73,24,73,72xm609,-1723v0,49,-24,73,-73,73v-48,0,-72,-24,-72,-73v0,-48,24,-72,72,-72v49,0,73,24,73,72xm1471,-34v5,38,-52,45,-67,15r-215,-431r-857,0r-215,431v-13,31,-72,23,-67,-15v-3,-12,674,-1368,676,-1361v18,-34,51,-33,69,0v35,65,157,305,364,721v208,419,312,632,312,640xm1154,-520r-393,-787r-394,787r787,0","w":1521},"\u00c5":{"d":"761,-1873v95,0,177,82,177,177v0,95,-82,174,-177,174v-96,0,-178,-79,-178,-174v0,-95,82,-177,178,-177xm1471,-34v5,38,-52,45,-67,15r-215,-431r-857,0r-215,431v-13,31,-72,23,-67,-15v-3,-12,674,-1368,676,-1361v18,-34,51,-33,69,0v35,65,157,305,364,721v208,419,312,632,312,640xm761,-1592v57,0,107,-46,107,-104v0,-57,-51,-107,-107,-107v-57,0,-108,50,-108,107v0,59,50,104,108,104xm1154,-520r-393,-787r-394,787r787,0","w":1521},"\u00c6":{"d":"1771,-1385v0,23,-12,35,-35,35r-715,0r0,605r565,0v23,0,35,12,35,35v0,23,-12,35,-35,35r-565,0r0,605r715,0v23,0,35,12,35,35v0,23,-12,35,-35,35r-750,0v-23,0,-35,-12,-35,-35r0,-415r-547,0r-289,434v-16,28,-69,18,-65,-18v0,-7,2,-14,6,-20r900,-1350v7,-11,17,-16,29,-16r751,0v23,0,35,12,35,35xm951,-520r0,-749r-500,749r500,0","w":1821},"\u00c7":{"d":"120,-710v0,344,296,640,640,640v155,0,307,-61,452,-187v24,-21,64,-10,61,25v0,9,-4,17,-11,24v-88,95,-203,158,-345,191v69,52,103,121,103,207v0,139,-121,260,-260,260v-97,0,-173,-43,-226,-131v-14,-24,0,-55,32,-52v5,0,25,19,61,57v36,38,80,56,133,56v101,0,190,-89,190,-190v0,-101,-89,-193,-190,-190v-381,11,-710,-329,-710,-710v0,-473,490,-859,982,-656v92,38,168,90,230,154v21,22,10,64,-25,60v-8,0,-16,-4,-25,-11v-146,-125,-297,-187,-452,-187v-344,0,-640,296,-640,640","w":1323,"k":{"\u00b7":1298}},"\u00c8":{"d":"726,-1716v31,15,23,71,-15,67v-12,3,-307,-146,-317,-155v-31,-15,-23,-71,15,-67v12,-3,307,146,317,155xm970,-35v0,23,-12,35,-35,35r-750,0v-23,0,-35,-12,-35,-35r0,-1350v0,-23,12,-35,35,-35r750,0v23,0,35,12,35,35v0,23,-12,35,-35,35r-715,0r0,605r565,0v23,0,35,12,35,35v0,23,-12,35,-35,35r-565,0r0,605r715,0v23,0,35,12,35,35","w":1020},"\u00c9":{"d":"711,-1871v38,-4,46,52,15,67v-12,10,-304,158,-317,155v-38,4,-46,-52,-15,-67v12,-10,304,-158,317,-155xm970,-35v0,23,-12,35,-35,35r-750,0v-23,0,-35,-12,-35,-35r0,-1350v0,-23,12,-35,35,-35r750,0v23,0,35,12,35,35v0,23,-12,35,-35,35r-715,0r0,605r565,0v23,0,35,12,35,35v0,23,-12,35,-35,35r-565,0r0,605r715,0v23,0,35,12,35,35","w":1020},"\u00ca":{"d":"804,-1714v28,16,18,69,-18,65v-7,0,-14,-2,-20,-7r-206,-137r-206,137v-23,16,-54,4,-54,-30v0,-11,5,-21,16,-28r222,-148v16,-12,28,-12,44,0xm970,-35v0,23,-12,35,-35,35r-750,0v-23,0,-35,-12,-35,-35r0,-1350v0,-23,12,-35,35,-35r750,0v23,0,35,12,35,35v0,23,-12,35,-35,35r-715,0r0,605r565,0v23,0,35,12,35,35v0,23,-12,35,-35,35r-565,0r0,605r715,0v23,0,35,12,35,35","w":1020},"\u00cb":{"d":"858,-1723v0,49,-24,73,-73,73v-48,0,-72,-24,-72,-73v0,-48,24,-72,72,-72v49,0,73,24,73,72xm408,-1723v0,49,-24,73,-73,73v-48,0,-72,-24,-72,-73v0,-48,24,-72,72,-72v49,0,73,24,73,72xm970,-35v0,23,-12,35,-35,35r-750,0v-23,0,-35,-12,-35,-35r0,-1350v0,-23,12,-35,35,-35r750,0v23,0,35,12,35,35v0,23,-12,35,-35,35r-715,0r0,605r565,0v23,0,35,12,35,35v0,23,-12,35,-35,35r-565,0r0,605r715,0v23,0,35,12,35,35","w":1020},"\u00cc":{"d":"351,-1716v31,15,23,71,-15,67v-12,3,-307,-146,-317,-155v-31,-15,-23,-71,15,-67v12,-3,307,146,317,155xm217,-35v0,23,-12,35,-35,35v-23,0,-35,-12,-35,-35r0,-1350v0,-23,12,-35,35,-35v23,0,35,12,35,35r0,1350","w":370},"\u00cd":{"d":"336,-1871v38,-4,46,52,15,67v-12,10,-304,158,-317,155v-38,4,-46,-52,-15,-67v12,-10,304,-158,317,-155xm217,-35v0,23,-12,35,-35,35v-23,0,-35,-12,-35,-35r0,-1350v0,-23,12,-35,35,-35v23,0,35,12,35,35r0,1350","w":370},"\u00ce":{"d":"429,-1714v28,16,18,69,-18,65v-7,0,-14,-2,-20,-7r-206,-137r-206,137v-23,16,-54,4,-54,-30v0,-11,5,-21,16,-28r222,-148v16,-12,28,-12,44,0xm220,-35v0,23,-12,35,-35,35v-23,0,-35,-12,-35,-35r0,-1350v0,-23,12,-35,35,-35v23,0,35,12,35,35r0,1350","w":370},"\u00cf":{"d":"482,-1723v0,49,-24,73,-73,73v-48,0,-72,-24,-72,-73v0,-48,24,-72,72,-72v49,0,73,24,73,72xm32,-1723v0,49,-24,73,-72,73v-48,0,-72,-24,-72,-73v0,-48,24,-72,72,-72v48,0,72,24,72,72xm219,-35v0,23,-12,35,-35,35v-23,0,-35,-12,-35,-35r0,-1350v0,-23,12,-35,35,-35v23,0,35,12,35,35r0,1350","w":370},"\u00d0":{"d":"710,-1420v381,-11,710,329,710,710v0,381,-329,710,-710,710r-450,0v-23,0,-35,-12,-35,-35r0,-640r-190,0v-23,0,-35,-12,-35,-35v0,-23,12,-35,35,-35r190,0r0,-640v0,-23,12,-35,35,-35r450,0xm710,-70v344,10,640,-296,640,-640v0,-344,-296,-640,-640,-640r-415,0r0,605r190,0v23,0,35,12,35,35v0,23,-12,35,-35,35r-190,0r0,605r415,0","w":1470},"\u00d1":{"d":"375,-1759v20,-74,90,-112,186,-111v49,0,102,25,161,75v59,50,106,75,139,75v47,0,82,-13,105,-38v23,-25,38,-37,44,-37v24,0,36,11,36,34v-19,76,-90,111,-185,111v-49,0,-104,-25,-163,-75v-59,-50,-104,-75,-137,-75v-47,0,-83,13,-106,38v-23,25,-38,37,-43,37v-25,0,-37,-11,-37,-34xm1271,-35v2,39,-46,45,-67,17r-983,-1265r0,1248v0,23,-12,35,-35,35v-23,0,-35,-12,-35,-35r-1,-1350v-2,-39,46,-44,67,-17r984,1265r0,-1248v0,-23,12,-35,35,-35v23,0,35,12,35,35r0,1350","w":1421},"\u00d2":{"d":"941,-1716v31,15,23,71,-15,67v-12,3,-307,-146,-317,-155v-31,-15,-23,-71,15,-67v12,-3,307,146,317,155xm760,-1420v381,0,710,329,710,710v0,381,-329,710,-710,710v-381,0,-710,-329,-710,-710v0,-381,329,-710,710,-710xm760,-70v344,0,640,-296,640,-640v0,-344,-296,-640,-640,-640v-344,0,-640,296,-640,640v0,344,296,640,640,640","w":1520},"\u00d3":{"d":"926,-1871v38,-4,46,52,15,67v-12,10,-304,158,-317,155v-38,4,-46,-52,-15,-67v12,-10,304,-158,317,-155xm760,-1420v381,0,710,329,710,710v0,381,-329,710,-710,710v-381,0,-710,-329,-710,-710v0,-381,329,-710,710,-710xm760,-70v344,0,640,-296,640,-640v0,-344,-296,-640,-640,-640v-344,0,-640,296,-640,640v0,344,296,640,640,640","w":1520},"\u00d4":{"d":"1004,-1714v28,16,18,69,-18,65v-7,0,-14,-2,-20,-7r-206,-137r-206,137v-23,16,-54,4,-54,-30v0,-11,5,-21,16,-28r222,-148v16,-12,28,-12,44,0xm760,-1420v381,0,710,329,710,710v0,381,-329,710,-710,710v-381,0,-710,-329,-710,-710v0,-381,329,-710,710,-710xm760,-70v344,0,640,-296,640,-640v0,-344,-296,-640,-640,-640v-344,0,-640,296,-640,640v0,344,296,640,640,640","w":1520},"\u00d5":{"d":"440,-1759v19,-76,90,-111,185,-111v49,0,103,25,162,75v59,50,105,75,138,75v47,0,82,-13,105,-38v23,-25,38,-37,44,-37v24,0,36,11,36,34v-19,76,-90,111,-185,111v-49,0,-103,-25,-162,-75v-59,-50,-105,-75,-138,-75v-47,0,-82,13,-105,38v-23,25,-38,37,-44,37v-24,0,-36,-11,-36,-34xm760,-1420v381,0,710,329,710,710v0,381,-329,710,-710,710v-381,0,-710,-329,-710,-710v0,-381,329,-710,710,-710xm760,-70v344,0,640,-296,640,-640v0,-344,-296,-640,-640,-640v-344,0,-640,296,-640,640v0,344,296,640,640,640","w":1520},"\u00d6":{"d":"1058,-1723v0,49,-24,73,-73,73v-48,0,-72,-24,-72,-73v0,-48,24,-72,72,-72v49,0,73,24,73,72xm608,-1723v0,49,-24,73,-73,73v-48,0,-72,-24,-72,-73v0,-48,24,-72,72,-72v49,0,73,24,73,72xm760,-1420v381,0,710,329,710,710v0,381,-329,710,-710,710v-381,0,-710,-329,-710,-710v0,-381,329,-710,710,-710xm760,-70v344,0,640,-296,640,-640v0,-344,-296,-640,-640,-640v-344,0,-640,296,-640,640v0,344,296,640,640,640","w":1520},"\u00d7":{"d":"853,-839v36,0,47,40,25,61r-294,293r294,293v22,21,11,61,-25,61v-9,0,-18,-4,-25,-11r-293,-294r-293,294v-21,22,-61,11,-61,-25v0,-9,4,-18,11,-25r294,-293r-294,-293v-22,-21,-11,-61,25,-61v9,0,18,4,25,11r293,294r293,-294v7,-7,16,-11,25,-11"},"\u00d8":{"d":"51,-710v0,-381,329,-710,710,-710v182,0,341,61,476,184r174,-174v21,-22,60,-10,60,25v0,9,-4,18,-11,25r-173,173v123,135,184,294,184,477v0,381,-330,710,-710,710v-183,0,-342,-61,-477,-184r-174,174v-21,22,-60,10,-60,-25v0,-9,4,-18,11,-25r173,-173v-122,-135,-183,-294,-183,-477xm761,-1350v-344,0,-640,296,-640,640v0,163,54,306,163,427r904,-904v-121,-109,-264,-163,-427,-163xm761,-70v343,0,640,-297,640,-640v0,-163,-55,-306,-164,-427r-903,904v121,109,264,163,427,163","w":1521},"\u00d9":{"d":"751,-1716v31,15,23,71,-15,67v-12,3,-307,-146,-317,-155v-31,-15,-23,-71,15,-67v12,-3,307,146,317,155xm585,-70v223,0,415,-192,415,-415r0,-900v0,-23,12,-35,35,-35v23,0,35,12,35,35r0,900v7,261,-224,485,-485,485v-261,0,-485,-224,-485,-485r0,-900v0,-23,12,-35,35,-35v23,0,35,12,35,35r0,900v-6,223,192,415,415,415","w":1170},"\u00da":{"d":"736,-1871v38,-4,46,52,15,67v-12,10,-304,158,-317,155v-38,4,-46,-52,-15,-67v12,-10,304,-158,317,-155xm585,-70v223,0,415,-192,415,-415r0,-900v0,-23,12,-35,35,-35v23,0,35,12,35,35r0,900v7,261,-224,485,-485,485v-261,0,-485,-224,-485,-485r0,-900v0,-23,12,-35,35,-35v23,0,35,12,35,35r0,900v-6,223,192,415,415,415","w":1170},"\u00db":{"d":"829,-1714v28,16,18,69,-18,65v-7,0,-14,-2,-20,-7r-206,-137r-206,137v-23,16,-54,4,-54,-30v0,-11,5,-21,16,-28r222,-148v16,-12,28,-12,44,0xm585,-70v223,0,415,-192,415,-415r0,-900v0,-23,12,-35,35,-35v23,0,35,12,35,35r0,900v7,261,-224,485,-485,485v-261,0,-485,-224,-485,-485r0,-900v0,-23,12,-35,35,-35v23,0,35,12,35,35r0,900v-6,223,192,415,415,415","w":1170},"\u00dc":{"d":"883,-1723v0,49,-24,73,-73,73v-48,0,-72,-24,-72,-73v0,-48,24,-72,72,-72v49,0,73,24,73,72xm433,-1723v0,49,-24,73,-73,73v-48,0,-72,-24,-72,-73v0,-48,24,-72,72,-72v49,0,73,24,73,72xm585,-70v223,0,415,-192,415,-415r0,-900v0,-23,12,-35,35,-35v23,0,35,12,35,35r0,900v7,261,-224,485,-485,485v-261,0,-485,-224,-485,-485r0,-900v0,-23,12,-35,35,-35v23,0,35,12,35,35r0,900v-6,223,192,415,415,415","w":1170},"\u00dd":{"d":"762,-1871v38,-3,46,53,14,67v-11,10,-303,157,-316,155v-39,4,-48,-53,-15,-67v11,-10,304,-158,317,-155xm1135,-1421v33,0,46,34,28,57r-517,666r0,663v0,23,-12,35,-35,35v-23,0,-35,-12,-35,-35r0,-663r-518,-666v-18,-23,-5,-57,28,-57v11,0,20,5,27,15r498,639r497,-639v7,-10,16,-15,27,-15","w":1171},"\u00de":{"d":"635,-1195v261,-7,485,224,485,485v0,261,-224,485,-485,485r-415,0r0,190v0,23,-12,35,-35,35v-23,0,-35,-12,-35,-35r0,-1350v0,-23,12,-35,35,-35v23,0,35,12,35,35r0,190r415,0xm635,-295v223,6,415,-192,415,-415v0,-223,-192,-415,-415,-415r-415,0r0,830r415,0","w":1170},"\u00df":{"d":"738,-595v157,-4,290,142,290,298v0,159,-139,297,-298,297v-134,0,-228,-63,-278,-192v-18,-46,49,-66,66,-24v34,83,115,146,212,146v121,0,228,-106,228,-227v0,-128,-111,-231,-238,-228v-117,3,-217,-106,-217,-222v0,-64,32,-125,96,-183v64,-58,96,-123,96,-197v0,-120,-103,-223,-223,-223v-135,0,-252,117,-252,253r0,1062v0,23,-12,35,-35,35v-23,0,-35,-12,-35,-35r0,-1062v-5,-173,149,-323,322,-323v158,0,293,136,293,293v0,70,-16,128,-49,174v-3,4,-34,36,-93,96v-33,34,-50,71,-50,110v0,90,76,154,165,152","w":1078},"\u00e0":{"d":"551,-1266v31,15,23,71,-15,67v-12,3,-307,-146,-317,-155v-31,-15,-23,-71,15,-67v12,-3,307,146,317,155xm385,-970v179,0,335,156,335,335r0,600v0,23,-12,35,-35,35v-56,1,-29,-81,-35,-130v-67,87,-156,130,-265,130v-179,0,-335,-156,-335,-335v0,-179,156,-335,335,-335v109,0,198,43,265,130r0,-95v6,-195,-231,-345,-408,-221r-69,45v-35,3,-46,-39,-25,-61v61,-65,139,-98,237,-98xm385,-70v141,0,265,-124,265,-265v0,-141,-124,-265,-265,-265v-141,0,-265,124,-265,265v0,141,124,265,265,265","w":820},"\u00e1":{"d":"536,-1421v38,-4,46,52,15,67v-12,10,-304,158,-317,155v-38,4,-46,-52,-15,-67v12,-10,304,-158,317,-155xm385,-970v179,0,335,156,335,335r0,600v0,23,-12,35,-35,35v-56,1,-29,-81,-35,-130v-67,87,-156,130,-265,130v-179,0,-335,-156,-335,-335v0,-179,156,-335,335,-335v109,0,198,43,265,130r0,-95v6,-195,-231,-345,-408,-221r-69,45v-35,3,-46,-39,-25,-61v61,-65,139,-98,237,-98xm385,-70v141,0,265,-124,265,-265v0,-141,-124,-265,-265,-265v-141,0,-265,124,-265,265v0,141,124,265,265,265","w":820},"\u00e2":{"d":"629,-1264v28,16,18,69,-18,65v-7,0,-14,-2,-20,-7r-206,-137r-206,137v-23,16,-54,4,-54,-30v0,-11,5,-21,16,-28r222,-148v16,-12,28,-12,44,0xm385,-970v179,0,335,156,335,335r0,600v0,23,-12,35,-35,35v-56,1,-29,-81,-35,-130v-67,87,-156,130,-265,130v-179,0,-335,-156,-335,-335v0,-179,156,-335,335,-335v109,0,198,43,265,130r0,-95v6,-195,-231,-345,-408,-221r-69,45v-35,3,-46,-39,-25,-61v61,-65,139,-98,237,-98xm385,-70v141,0,265,-124,265,-265v0,-141,-124,-265,-265,-265v-141,0,-265,124,-265,265v0,141,124,265,265,265","w":820},"\u00e3":{"d":"50,-1309v19,-76,90,-111,185,-111v49,0,104,25,163,75v59,50,104,75,137,75v47,0,83,-13,106,-38v23,-25,38,-37,43,-37v25,0,37,11,37,34v-20,74,-90,112,-186,111v-49,0,-103,-25,-162,-75v-59,-50,-105,-75,-138,-75v-47,0,-82,13,-105,38v-23,25,-38,37,-44,37v-24,0,-36,-11,-36,-34xm385,-970v180,0,335,156,335,335r0,600v0,23,-12,35,-35,35v-56,1,-29,-81,-35,-130v-67,87,-155,130,-265,130v-179,0,-335,-156,-335,-335v0,-179,156,-335,335,-335v110,0,198,43,265,130r0,-95v6,-195,-229,-345,-406,-221r-71,45v-35,3,-46,-39,-25,-61v61,-65,139,-98,237,-98xm385,-70v142,0,265,-123,265,-265v0,-142,-123,-265,-265,-265v-141,0,-265,124,-265,265v0,141,124,265,265,265","w":821},"\u00e4":{"d":"683,-1273v0,49,-24,73,-73,73v-48,0,-72,-24,-72,-73v0,-48,24,-72,72,-72v49,0,73,24,73,72xm233,-1273v0,49,-24,73,-73,73v-48,0,-72,-24,-72,-73v0,-48,24,-72,72,-72v49,0,73,24,73,72xm385,-970v179,0,335,156,335,335r0,600v0,23,-12,35,-35,35v-56,1,-29,-81,-35,-130v-67,87,-156,130,-265,130v-179,0,-335,-156,-335,-335v0,-179,156,-335,335,-335v109,0,198,43,265,130r0,-95v6,-195,-231,-345,-408,-221r-69,45v-35,3,-46,-39,-25,-61v61,-65,139,-98,237,-98xm385,-70v141,0,265,-124,265,-265v0,-141,-124,-265,-265,-265v-141,0,-265,124,-265,265v0,141,124,265,265,265","w":820},"\u00e5":{"d":"385,-1448v95,0,177,82,177,177v0,95,-82,174,-177,174v-95,0,-178,-79,-178,-174v0,-95,83,-177,178,-177xm385,-970v179,0,335,156,335,335r0,600v0,23,-12,35,-35,35v-56,1,-29,-81,-35,-130v-67,87,-156,130,-265,130v-179,0,-335,-156,-335,-335v0,-179,156,-335,335,-335v109,0,198,43,265,130r0,-95v6,-195,-231,-345,-408,-221r-69,45v-35,3,-46,-39,-25,-61v61,-65,139,-98,237,-98xm385,-1167v57,0,107,-46,107,-104v0,-57,-50,-107,-107,-107v-57,0,-108,50,-108,107v0,58,51,104,108,104xm385,-70v141,0,265,-124,265,-265v0,-141,-124,-265,-265,-265v-141,0,-265,124,-265,265v0,141,124,265,265,265","w":820},"\u00e6":{"d":"710,-718v89,-177,336,-312,587,-223v84,30,262,144,262,232v0,13,-6,23,-17,29r-748,432v83,119,196,178,341,178v155,0,288,-88,359,-208v23,-39,85,-7,61,36v-73,132,-230,242,-420,242v-194,0,-354,-114,-425,-252v-32,136,-165,252,-325,252v-179,0,-335,-156,-335,-335v0,-179,156,-335,335,-335v109,0,198,43,265,130r0,-95v6,-195,-231,-345,-407,-221r-70,45v-35,3,-46,-39,-25,-61v62,-65,140,-98,237,-98v160,-1,294,117,325,252xm1135,-900v-284,0,-511,306,-376,592r717,-414v-83,-119,-196,-178,-341,-178xm385,-70v141,0,265,-124,265,-265v0,-141,-124,-265,-265,-265v-141,0,-265,124,-265,265v0,141,124,265,265,265","w":1610},"\u00e7":{"d":"50,-485v0,-261,224,-485,485,-485v143,0,256,48,343,142v21,23,10,63,-25,60v4,0,-29,-22,-99,-66v-70,-44,-143,-66,-219,-66v-223,0,-415,192,-415,415v0,223,192,415,415,415v76,0,149,-22,219,-66v70,-44,103,-66,98,-66v24,0,36,12,36,36v2,45,-154,129,-204,143v74,52,111,123,111,213v0,139,-121,260,-260,260v-99,0,-175,-43,-226,-131v-14,-24,0,-55,32,-52v5,0,25,19,61,57v36,38,80,56,133,56v101,0,190,-89,190,-190v0,-101,-89,-193,-190,-190v-261,7,-485,-224,-485,-485","w":939},"\u00e8":{"d":"701,-1266v31,15,23,71,-15,67v-12,3,-307,-146,-317,-155v-31,-15,-23,-71,15,-67v12,-3,307,146,317,155xm50,-485v0,-313,313,-574,647,-456v83,29,263,144,262,232v0,13,-6,23,-17,29r-748,432v83,119,196,178,341,178v125,0,228,-47,309,-138v25,-28,38,-80,80,-87v32,-5,45,28,31,53v-72,133,-230,238,-420,242v-261,5,-485,-224,-485,-485xm535,-900v-284,0,-511,306,-376,592r717,-414v-83,-119,-196,-178,-341,-178","w":1010},"\u00e9":{"d":"686,-1421v38,-4,46,52,15,67v-12,10,-304,158,-317,155v-38,4,-46,-52,-15,-67v12,-10,304,-158,317,-155xm50,-485v0,-313,313,-574,647,-456v83,29,263,144,262,232v0,13,-6,23,-17,29r-748,432v83,119,196,178,341,178v125,0,228,-47,309,-138v25,-28,38,-80,80,-87v32,-5,45,28,31,53v-72,133,-230,238,-420,242v-261,5,-485,-224,-485,-485xm535,-900v-284,0,-511,306,-376,592r717,-414v-83,-119,-196,-178,-341,-178","w":1010},"\u00ea":{"d":"779,-1264v28,16,18,69,-18,65v-7,0,-14,-2,-20,-7r-206,-137r-206,137v-23,16,-54,4,-54,-30v0,-11,5,-21,16,-28r222,-148v16,-12,28,-12,44,0xm50,-485v0,-313,313,-574,647,-456v83,29,263,144,262,232v0,13,-6,23,-17,29r-748,432v83,119,196,178,341,178v125,0,228,-47,309,-138v25,-28,38,-80,80,-87v32,-5,45,28,31,53v-72,133,-230,238,-420,242v-261,5,-485,-224,-485,-485xm535,-900v-284,0,-511,306,-376,592r717,-414v-83,-119,-196,-178,-341,-178","w":1010},"\u00eb":{"d":"833,-1273v0,49,-24,73,-73,73v-48,0,-72,-24,-72,-73v0,-48,24,-72,72,-72v49,0,73,24,73,72xm383,-1273v0,49,-24,73,-73,73v-48,0,-72,-24,-72,-73v0,-48,24,-72,72,-72v49,0,73,24,73,72xm50,-485v0,-313,313,-574,647,-456v83,29,263,144,262,232v0,13,-6,23,-17,29r-748,432v83,119,196,178,341,178v125,0,228,-47,309,-138v25,-28,38,-80,80,-87v32,-5,45,28,31,53v-72,133,-230,238,-420,242v-261,5,-485,-224,-485,-485xm535,-900v-284,0,-511,306,-376,592r717,-414v-83,-119,-196,-178,-341,-178","w":1010},"\u00ec":{"d":"351,-1266v31,15,23,71,-15,67v-12,3,-307,-146,-317,-155v-31,-15,-23,-71,15,-67v12,-3,307,146,317,155xm220,-935r0,900v0,23,-12,35,-35,35v-23,0,-35,-12,-35,-35r0,-900v0,-23,12,-35,35,-35v23,0,35,12,35,35","w":370},"\u00ed":{"d":"336,-1421v38,-4,46,52,15,67v-12,10,-304,158,-317,155v-38,4,-46,-52,-15,-67v12,-10,304,-158,317,-155xm220,-935r0,900v0,23,-12,35,-35,35v-23,0,-35,-12,-35,-35r0,-900v0,-23,12,-35,35,-35v23,0,35,12,35,35","w":370},"\u00ee":{"d":"429,-1264v28,16,18,69,-18,65v-7,0,-14,-2,-20,-7r-206,-137r-206,137v-23,16,-54,4,-54,-30v0,-11,5,-21,16,-28r222,-148v16,-12,28,-12,44,0xm220,-935r0,900v0,23,-12,35,-35,35v-23,0,-35,-12,-35,-35r0,-900v0,-23,12,-35,35,-35v23,0,35,12,35,35","w":370},"\u00ef":{"d":"482,-1273v0,49,-24,73,-73,73v-48,0,-72,-24,-72,-73v0,-48,24,-72,72,-72v49,0,73,24,73,72xm33,-1273v0,49,-24,73,-73,73v-48,0,-72,-24,-72,-73v0,-48,24,-72,72,-72v49,0,73,24,73,72xm220,-935r-1,900v0,23,-11,35,-34,35v-23,0,-35,-12,-35,-35r0,-900v0,-23,12,-35,35,-35v23,0,35,12,35,35","w":370},"\u00f0":{"d":"50,-485v0,-297,276,-551,603,-471r-245,-244r-248,0v-23,0,-35,-12,-35,-35v0,-23,12,-35,35,-35r178,0v-68,-65,-102,-104,-102,-115v0,-24,12,-36,36,-36v11,0,66,50,165,151r473,0v23,0,35,12,35,35v0,23,-12,35,-35,35r-403,0r378,377v90,90,135,203,135,338v0,261,-224,485,-485,485v-261,0,-485,-224,-485,-485xm535,-70v223,0,415,-192,415,-415v0,-223,-192,-415,-415,-415v-223,0,-415,192,-415,415v0,223,192,415,415,415"},"\u00f1":{"d":"150,-1309v19,-76,90,-111,185,-111v49,0,104,25,163,75v59,50,104,75,137,75v47,0,83,-13,106,-38v23,-25,38,-37,43,-37v25,0,37,11,37,34v-20,74,-90,112,-186,111v-49,0,-103,-25,-162,-75v-59,-50,-105,-75,-138,-75v-47,0,-82,13,-105,38v-23,25,-38,37,-44,37v-24,0,-36,-11,-36,-34xm485,-970v180,0,335,156,335,335r0,600v0,23,-12,35,-35,35v-23,0,-35,-12,-35,-35r0,-600v4,-142,-123,-265,-265,-265v-141,0,-265,124,-265,265r0,600v0,23,-12,35,-35,35v-23,0,-35,-12,-35,-35r0,-900v0,-23,12,-35,35,-35v56,-1,29,81,35,130v67,-87,156,-130,265,-130","w":921},"\u00f2":{"d":"701,-1266v31,15,23,71,-15,67v-12,3,-307,-146,-317,-155v-31,-15,-23,-71,15,-67v12,-3,307,146,317,155xm535,-970v261,0,485,224,485,485v0,261,-224,485,-485,485v-261,0,-485,-224,-485,-485v0,-261,224,-485,485,-485xm535,-70v223,0,415,-192,415,-415v0,-223,-192,-415,-415,-415v-223,0,-415,192,-415,415v0,223,192,415,415,415"},"\u00f3":{"d":"686,-1421v38,-4,46,52,15,67v-12,10,-304,158,-317,155v-38,4,-46,-52,-15,-67v12,-10,304,-158,317,-155xm535,-970v261,0,485,224,485,485v0,261,-224,485,-485,485v-261,0,-485,-224,-485,-485v0,-261,224,-485,485,-485xm535,-70v223,0,415,-192,415,-415v0,-223,-192,-415,-415,-415v-223,0,-415,192,-415,415v0,223,192,415,415,415"},"\u00f4":{"d":"779,-1264v28,16,18,69,-18,65v-7,0,-14,-2,-20,-7r-206,-137r-206,137v-23,16,-54,4,-54,-30v0,-11,5,-21,16,-28r222,-148v16,-12,28,-12,44,0xm535,-970v261,0,485,224,485,485v0,261,-224,485,-485,485v-261,0,-485,-224,-485,-485v0,-261,224,-485,485,-485xm535,-70v223,0,415,-192,415,-415v0,-223,-192,-415,-415,-415v-223,0,-415,192,-415,415v0,223,192,415,415,415"},"\u00f5":{"d":"200,-1309v19,-76,90,-111,185,-111v49,0,103,25,162,75v59,50,105,75,138,75v47,0,82,-13,105,-38v23,-25,38,-37,44,-37v24,0,36,11,36,34v-19,76,-90,111,-185,111v-49,0,-103,-25,-162,-75v-59,-50,-105,-75,-138,-75v-47,0,-82,13,-105,38v-23,25,-38,37,-44,37v-24,0,-36,-11,-36,-34xm535,-970v261,0,485,224,485,485v0,261,-224,485,-485,485v-261,0,-485,-224,-485,-485v0,-261,224,-485,485,-485xm535,-70v223,0,415,-192,415,-415v0,-223,-192,-415,-415,-415v-223,0,-415,192,-415,415v0,223,192,415,415,415"},"\u00f6":{"d":"833,-1273v0,49,-24,73,-73,73v-48,0,-72,-24,-72,-73v0,-48,24,-72,72,-72v49,0,73,24,73,72xm383,-1273v0,49,-24,73,-73,73v-48,0,-72,-24,-72,-73v0,-48,24,-72,72,-72v49,0,73,24,73,72xm535,-970v261,0,485,224,485,485v0,261,-224,485,-485,485v-261,0,-485,-224,-485,-485v0,-261,224,-485,485,-485xm535,-70v223,0,415,-192,415,-415v0,-223,-192,-415,-415,-415v-223,0,-415,192,-415,415v0,223,192,415,415,415"},"\u00f7":{"d":"535,-937v-39,0,-74,-35,-74,-74v0,-47,25,-71,74,-71v49,0,74,24,74,71v0,39,-35,74,-74,74xm870,-597v0,23,-12,35,-35,35r-600,0v-23,0,-35,-12,-35,-35v0,-23,12,-35,35,-35r600,0v23,0,35,12,35,35xm535,-112v-39,0,-74,-35,-74,-74v0,-47,25,-71,74,-71v49,0,74,24,74,71v0,39,-35,74,-74,74"},"\u00f8":{"d":"51,-485v0,-261,224,-485,485,-485v120,0,226,39,317,118v77,-79,121,-119,132,-119v24,0,36,12,36,36v0,11,-40,56,-119,133v79,91,119,196,119,317v0,260,-225,485,-485,485v-121,0,-227,-39,-318,-118v-77,79,-121,119,-132,119v-24,0,-36,-12,-36,-36v0,-11,40,-56,119,-133v-79,-91,-118,-196,-118,-317xm536,-900v-223,0,-415,192,-415,415v0,101,32,191,97,268r585,-585v-77,-65,-166,-98,-267,-98xm536,-70v222,0,415,-192,415,-415v0,-101,-33,-191,-98,-268r-585,585v77,65,167,98,268,98","w":1071},"\u00f9":{"d":"601,-1266v31,15,23,71,-15,67v-12,3,-307,-146,-317,-155v-31,-15,-23,-71,15,-67v12,-3,307,146,317,155xm435,-70v141,0,265,-124,265,-265r0,-600v0,-23,12,-35,35,-35v23,0,35,12,35,35r0,600v5,179,-156,335,-335,335v-179,0,-335,-156,-335,-335r0,-600v0,-23,12,-35,35,-35v23,0,35,12,35,35r0,600v-4,141,124,265,265,265","w":870},"\u00fa":{"d":"586,-1421v38,-4,46,52,15,67v-12,10,-304,158,-317,155v-38,4,-46,-52,-15,-67v12,-10,304,-158,317,-155xm435,-70v141,0,265,-124,265,-265r0,-600v0,-23,12,-35,35,-35v23,0,35,12,35,35r0,600v5,179,-156,335,-335,335v-179,0,-335,-156,-335,-335r0,-600v0,-23,12,-35,35,-35v23,0,35,12,35,35r0,600v-4,141,124,265,265,265","w":870},"\u00fb":{"d":"679,-1264v28,16,18,69,-18,65v-7,0,-14,-2,-20,-7r-206,-137r-206,137v-23,16,-54,4,-54,-30v0,-11,5,-21,16,-28r222,-148v16,-12,28,-12,44,0xm435,-70v141,0,265,-124,265,-265r0,-600v0,-23,12,-35,35,-35v23,0,35,12,35,35r0,600v5,179,-156,335,-335,335v-179,0,-335,-156,-335,-335r0,-600v0,-23,12,-35,35,-35v23,0,35,12,35,35r0,600v-4,141,124,265,265,265","w":870},"\u00fc":{"d":"733,-1273v0,49,-24,73,-73,73v-48,0,-72,-24,-72,-73v0,-48,24,-72,72,-72v49,0,73,24,73,72xm283,-1273v0,49,-24,73,-73,73v-48,0,-72,-24,-72,-73v0,-48,24,-72,72,-72v49,0,73,24,73,72xm435,-70v141,0,265,-124,265,-265r0,-600v0,-23,12,-35,35,-35v23,0,35,12,35,35r0,600v5,179,-156,335,-335,335v-179,0,-335,-156,-335,-335r0,-600v0,-23,12,-35,35,-35v23,0,35,12,35,35r0,600v-4,141,124,265,265,265","w":870},"\u00fd":{"d":"586,-1421v38,-4,46,52,15,67v-12,10,-304,158,-317,155v-38,4,-46,-52,-15,-67v12,-10,304,-158,317,-155xm435,-70v141,0,265,-124,265,-265r0,-600v0,-23,12,-35,35,-35v23,0,35,12,35,35r0,1050v5,179,-156,335,-335,335v-131,0,-229,-55,-290,-166v-14,-25,-1,-55,32,-53v32,11,92,99,121,110v39,26,85,39,137,39v141,0,265,-124,265,-265r0,-245v-67,87,-156,130,-265,130v-179,0,-335,-156,-335,-335r0,-600v0,-23,12,-35,35,-35v23,0,35,12,35,35r0,600v-4,141,124,265,265,265","w":920},"\u00fe":{"d":"635,-970v261,-5,485,224,485,485v0,261,-224,490,-485,485v-188,-4,-340,-105,-415,-234r0,649v0,23,-12,35,-35,35v-23,0,-35,-12,-35,-35r0,-1800v0,-23,12,-35,35,-35v23,0,35,12,35,35r0,649v76,-130,226,-230,415,-234xm635,-70v223,0,415,-192,415,-415v0,-223,-192,-415,-415,-415v-223,0,-415,192,-415,415v0,223,192,415,415,415","w":1170},"\u00ff":{"d":"733,-1260v0,49,-24,73,-73,73v-48,0,-72,-24,-72,-73v0,-48,24,-72,72,-72v49,0,73,24,73,72xm283,-1260v0,49,-24,73,-73,73v-48,0,-72,-24,-72,-73v0,-48,24,-72,72,-72v49,0,73,24,73,72xm435,-70v141,0,265,-124,265,-265r0,-600v0,-23,12,-35,35,-35v23,0,35,12,35,35r0,1050v5,179,-156,335,-335,335v-131,0,-229,-55,-290,-166v-14,-25,-1,-55,32,-53v32,11,92,99,121,110v39,26,85,39,137,39v141,0,265,-124,265,-265r0,-245v-67,87,-156,130,-265,130v-179,0,-335,-156,-335,-335r0,-600v0,-23,12,-35,35,-35v23,0,35,12,35,35r0,600v-4,141,124,265,265,265","w":920},"\u0100":{"d":"1471,-1760v0,23,-12,35,-35,35r-1350,0v-23,0,-35,-12,-35,-35v0,-23,12,-35,35,-35r1350,0v23,0,35,12,35,35xm1471,-34v5,38,-52,45,-67,15r-215,-431r-857,0r-215,431v-13,31,-72,23,-67,-15v-3,-12,674,-1368,676,-1361v18,-34,51,-33,69,0v35,65,157,305,364,721v208,419,312,632,312,640xm1154,-520r-393,-787r-394,787r787,0","w":1521},"\u0101":{"d":"720,-1310v0,23,-12,35,-35,35r-600,0v-23,0,-35,-12,-35,-35v0,-23,12,-35,35,-35r600,0v23,0,35,12,35,35xm385,-970v179,0,335,156,335,335r0,600v0,23,-12,35,-35,35v-56,1,-29,-81,-35,-130v-67,87,-156,130,-265,130v-179,0,-335,-156,-335,-335v0,-179,156,-335,335,-335v109,0,198,43,265,130r0,-95v6,-195,-231,-345,-408,-221r-69,45v-35,3,-46,-39,-25,-61v61,-65,139,-98,237,-98xm385,-70v141,0,265,-124,265,-265v0,-141,-124,-265,-265,-265v-141,0,-265,124,-265,265v0,141,124,265,265,265","w":770},"\u0102":{"d":"985,-1870v52,7,41,46,6,82v-176,179,-289,183,-461,0v-21,-22,-31,-38,-31,-47v0,-23,12,-35,37,-35v7,0,36,26,88,75v106,101,166,100,273,0v53,-49,81,-75,88,-75xm1471,-34v5,38,-52,45,-67,15r-215,-431r-857,0r-215,431v-13,31,-72,23,-67,-15v-3,-12,674,-1368,676,-1361v18,-34,51,-33,69,0v35,65,157,305,364,721v208,419,312,632,312,640xm1154,-520r-393,-787r-394,787r787,0","w":1521},"\u0103":{"d":"609,-1420v52,7,41,46,6,82v-176,179,-289,183,-461,0v-20,-22,-30,-38,-30,-47v0,-23,12,-35,37,-35v7,0,35,26,87,75v106,100,166,100,273,0v52,-50,81,-75,88,-75xm385,-970v179,0,335,156,335,335r0,600v0,23,-12,35,-35,35v-56,1,-29,-81,-35,-130v-67,87,-156,130,-265,130v-179,0,-335,-156,-335,-335v0,-179,156,-335,335,-335v109,0,198,43,265,130r0,-95v6,-195,-231,-345,-408,-221r-69,45v-35,3,-46,-39,-25,-61v61,-65,139,-98,237,-98xm385,-70v141,0,265,-124,265,-265v0,-141,-124,-265,-265,-265v-141,0,-265,124,-265,265v0,141,124,265,265,265","w":770},"\u0104":{"d":"1246,190v0,101,88,190,190,190v51,0,95,-18,132,-56v37,-38,57,-57,62,-57v31,-3,44,27,31,52v-48,87,-123,131,-225,131v-140,0,-260,-121,-260,-260v0,-127,95,-234,206,-254r-193,-386r-857,0r-215,431v-13,31,-72,23,-67,-15v-2,-11,675,-1370,676,-1361v17,-34,53,-33,69,0r672,1344v12,26,3,52,-31,51v-102,-4,-190,89,-190,190xm1154,-520r-393,-787r-394,787r787,0","w":1716},"\u0105":{"d":"495,190v0,101,89,190,190,190v50,0,94,-18,131,-56v37,-38,58,-57,63,-57v32,-2,46,27,32,52v-49,88,-125,131,-226,131v-139,0,-260,-121,-260,-260v0,-131,105,-246,225,-258r0,-62v-67,87,-156,130,-265,130v-179,0,-335,-156,-335,-335v0,-179,156,-335,335,-335v109,0,198,43,265,130r0,-95v6,-195,-231,-345,-408,-221r-69,45v-35,3,-46,-39,-25,-61v61,-65,139,-98,237,-98v179,0,335,156,335,335r0,600v0,23,-12,35,-35,35v-101,-3,-190,89,-190,190xm385,-70v141,0,265,-124,265,-265v0,-143,-122,-265,-265,-265v-141,0,-265,124,-265,265v0,141,124,265,265,265","w":966},"\u0106":{"d":"911,-1871v38,-4,46,52,15,67v-12,10,-304,158,-317,155v-38,4,-46,-52,-15,-67v12,-10,304,-158,317,-155xm120,-710v0,344,296,640,640,640v156,0,308,-61,452,-187v24,-21,64,-10,61,25v0,9,-4,17,-11,24v-133,139,-300,208,-502,208v-381,0,-710,-329,-710,-710v0,-381,329,-710,710,-710v202,0,368,70,502,208v21,22,10,64,-25,60v-8,0,-16,-4,-25,-11v-145,-125,-296,-187,-452,-187v-344,0,-640,296,-640,640","w":1323,"k":{"\u00b7":1298}},"\u0107":{"d":"686,-1421v38,-4,46,52,15,67v-12,10,-304,158,-317,155v-38,4,-46,-52,-15,-67v12,-10,304,-158,317,-155xm50,-485v0,-261,224,-485,485,-485v141,0,254,48,343,142v21,22,10,63,-25,60v4,0,-29,-22,-99,-66v-70,-44,-143,-66,-219,-66v-223,0,-415,192,-415,415v0,223,192,415,415,415v76,0,149,-22,219,-66v70,-44,103,-66,98,-66v35,-3,46,39,25,61v-88,93,-201,141,-342,141v-261,0,-485,-224,-485,-485","w":939},"\u0108":{"d":"1004,-1714v28,16,18,69,-18,65v-7,0,-14,-2,-20,-7r-206,-137r-206,137v-23,16,-54,4,-54,-30v0,-11,5,-21,16,-28r222,-148v16,-12,28,-12,44,0xm120,-710v0,344,296,640,640,640v156,0,308,-61,452,-187v24,-21,64,-10,61,25v0,9,-4,17,-11,24v-133,139,-300,208,-502,208v-381,0,-710,-329,-710,-710v0,-381,329,-710,710,-710v202,0,368,70,502,208v21,22,10,64,-25,60v-8,0,-16,-4,-25,-11v-145,-125,-296,-187,-452,-187v-344,0,-640,296,-640,640","w":1323,"k":{"\u00b7":1298}},"\u0109":{"d":"779,-1264v28,16,18,69,-18,65v-7,0,-14,-2,-20,-7r-206,-137r-206,137v-23,16,-54,4,-54,-30v0,-11,5,-21,16,-28r222,-148v16,-12,28,-12,44,0xm50,-485v0,-261,224,-485,485,-485v141,0,254,48,343,142v21,22,10,63,-25,60v4,0,-29,-22,-99,-66v-70,-44,-143,-66,-219,-66v-223,0,-415,192,-415,415v0,223,192,415,415,415v76,0,149,-22,219,-66v70,-44,103,-66,98,-66v35,-3,46,39,25,61v-88,93,-201,141,-342,141v-261,0,-485,-224,-485,-485","w":939},"\u010a":{"d":"833,-1723v0,49,-24,73,-73,73v-48,0,-72,-24,-72,-73v0,-48,24,-72,72,-72v49,0,73,24,73,72xm120,-710v0,344,296,640,640,640v156,0,308,-61,452,-187v24,-21,64,-10,61,25v0,9,-4,17,-11,24v-133,139,-300,208,-502,208v-381,0,-710,-329,-710,-710v0,-381,329,-710,710,-710v202,0,368,70,502,208v21,22,10,64,-25,60v-8,0,-16,-4,-25,-11v-145,-125,-296,-187,-452,-187v-344,0,-640,296,-640,640","w":1323,"k":{"\u00b7":1298}},"\u010b":{"d":"535,-1420v39,0,74,35,74,74v0,47,-25,71,-74,71v-49,0,-74,-24,-74,-71v0,-39,35,-74,74,-74xm50,-485v0,-261,224,-485,485,-485v141,0,254,48,343,142v21,22,10,63,-25,60v4,0,-29,-22,-99,-66v-70,-44,-143,-66,-219,-66v-223,0,-415,192,-415,415v0,223,192,415,415,415v76,0,149,-22,219,-66v70,-44,103,-66,98,-66v35,-3,46,39,25,61v-88,93,-201,141,-342,141v-261,0,-485,-224,-485,-485","w":939},"\u010c":{"d":"986,-1871v36,-4,45,47,18,65r-222,148v-16,12,-28,12,-44,0r-222,-148v-28,-16,-18,-69,18,-65v7,0,14,2,20,7r206,137r206,-137v6,-5,13,-7,20,-7xm120,-710v0,344,296,640,640,640v156,0,308,-61,452,-187v24,-21,64,-10,61,25v0,9,-4,17,-11,24v-133,139,-300,208,-502,208v-381,0,-710,-329,-710,-710v0,-381,329,-710,710,-710v202,0,368,70,502,208v21,22,10,64,-25,60v-8,0,-16,-4,-25,-11v-145,-125,-296,-187,-452,-187v-344,0,-640,296,-640,640","w":1323,"k":{"\u00b7":1298}},"\u010d":{"d":"761,-1421v36,-4,45,47,18,65r-225,150v-7,5,-31,5,-38,0r-225,-150v-28,-16,-18,-69,18,-65v7,0,14,2,20,7r206,137r206,-137v6,-5,13,-7,20,-7xm50,-485v0,-261,224,-485,485,-485v141,0,254,48,343,142v21,22,10,63,-25,60v4,0,-29,-22,-99,-66v-70,-44,-143,-66,-219,-66v-223,0,-415,192,-415,415v0,223,192,415,415,415v76,0,149,-22,219,-66v70,-44,103,-66,98,-66v35,-3,46,39,25,61v-88,93,-201,141,-342,141v-261,0,-485,-224,-485,-485","w":939},"\u010e":{"d":"861,-1871v36,-4,45,47,18,65r-222,148v-16,12,-28,12,-44,0r-222,-148v-28,-16,-18,-69,18,-65v7,0,14,2,20,7r206,137r206,-137v6,-5,13,-7,20,-7xm635,-1420v381,-11,710,329,710,710v0,381,-329,710,-710,710r-450,0v-23,0,-35,-12,-35,-35r0,-1350v0,-23,12,-35,35,-35r450,0xm635,-70v344,10,640,-296,640,-640v0,-344,-296,-640,-640,-640r-415,0r0,1280r415,0","w":1395},"\u010f":{"d":"761,-1871v36,-4,45,47,18,65r-222,148v-16,12,-28,12,-44,0r-222,-148v-28,-16,-18,-69,18,-65v7,0,14,2,20,7r206,137r206,-137v6,-5,13,-7,20,-7xm535,-970v188,4,340,105,415,234r0,-649v0,-23,12,-35,35,-35v23,0,35,12,35,35r0,1350v0,23,-12,35,-35,35v-23,0,-35,-12,-35,-35r0,-199v-76,130,-226,230,-415,234v-261,5,-485,-224,-485,-485v0,-261,224,-490,485,-485xm535,-70v223,0,415,-192,415,-415v0,-223,-192,-415,-415,-415v-223,0,-415,192,-415,415v0,223,192,415,415,415","w":1170},"\u0110":{"d":"710,-1420v381,-11,710,329,710,710v0,381,-329,710,-710,710r-450,0v-23,0,-35,-12,-35,-35r0,-626v-121,41,-184,61,-191,61v-40,5,-45,-56,-10,-68r201,-67r0,-650v0,-23,12,-35,35,-35r450,0xm710,-70v344,10,640,-296,640,-640v0,-344,-296,-640,-640,-640r-415,0r0,591v121,-41,185,-61,192,-61v40,-5,44,56,9,68r-201,67r0,615r415,0","w":1470},"\u0111":{"d":"535,-970v188,4,340,105,415,234r0,-389r-415,0v-23,0,-35,-12,-35,-35v0,-23,12,-35,35,-35r415,0r0,-190v0,-23,12,-35,35,-35v23,0,35,12,35,35r0,190r190,0v23,0,35,12,35,35v0,23,-12,35,-35,35r-190,0r0,1090v0,23,-12,35,-35,35v-23,0,-35,-12,-35,-35r0,-199v-76,130,-226,230,-415,234v-261,5,-485,-224,-485,-485v0,-261,224,-490,485,-485xm535,-70v223,0,415,-192,415,-415v0,-223,-192,-415,-415,-415v-223,0,-415,192,-415,415v0,223,192,415,415,415","w":1245},"\u0112":{"d":"970,-1760v0,23,-12,35,-35,35r-750,0v-23,0,-35,-12,-35,-35v0,-23,12,-35,35,-35r750,0v23,0,35,12,35,35xm970,-35v0,23,-12,35,-35,35r-750,0v-23,0,-35,-12,-35,-35r0,-1350v0,-23,12,-35,35,-35r750,0v23,0,35,12,35,35v0,23,-12,35,-35,35r-715,0r0,605r565,0v23,0,35,12,35,35v0,23,-12,35,-35,35r-565,0r0,605r715,0v23,0,35,12,35,35","w":1020},"\u0113":{"d":"960,-1310v0,23,-12,35,-35,35r-840,0v-23,0,-35,-12,-35,-35v0,-23,12,-35,35,-35r840,0v23,0,35,12,35,35xm50,-485v0,-313,313,-574,647,-456v83,29,263,144,262,232v0,13,-6,23,-17,29r-748,432v83,119,196,178,341,178v125,0,228,-47,309,-138v25,-28,38,-80,80,-87v32,-5,45,28,31,53v-72,133,-230,238,-420,242v-261,5,-485,-224,-485,-485xm535,-900v-284,0,-511,306,-376,592r717,-414v-83,-119,-196,-178,-341,-178","w":1010},"\u0114":{"d":"784,-1870v52,7,42,47,6,82v-140,135,-215,187,-371,82v-48,-33,-84,-70,-111,-107v-18,-25,-6,-61,28,-58v7,0,36,25,88,75v106,101,166,102,272,1v52,-49,81,-75,88,-75xm970,-35v0,23,-12,35,-35,35r-750,0v-23,0,-35,-12,-35,-35r0,-1350v0,-23,12,-35,35,-35r750,0v23,0,35,12,35,35v0,23,-12,35,-35,35r-715,0r0,605r565,0v23,0,35,12,35,35v0,23,-12,35,-35,35r-565,0r0,605r715,0v23,0,35,12,35,35","w":1020},"\u0115":{"d":"744,-1420v53,6,43,46,7,82v-176,179,-289,183,-461,0v-21,-22,-31,-38,-31,-47v0,-23,12,-35,37,-35v7,0,36,26,88,75v106,101,166,100,273,0v53,-49,81,-75,87,-75xm50,-485v0,-313,313,-574,647,-456v83,29,263,144,262,232v0,13,-6,23,-17,29r-748,432v83,119,196,178,341,178v125,0,228,-47,309,-138v25,-28,38,-80,80,-87v32,-5,45,28,31,53v-72,133,-230,238,-420,242v-261,5,-485,-224,-485,-485xm535,-900v-284,0,-511,306,-376,592r717,-414v-83,-119,-196,-178,-341,-178","w":1010},"\u0116":{"d":"633,-1723v0,49,-24,73,-73,73v-48,0,-72,-24,-72,-73v0,-48,24,-72,72,-72v49,0,73,24,73,72xm970,-35v0,23,-12,35,-35,35r-750,0v-23,0,-35,-12,-35,-35r0,-1350v0,-23,12,-35,35,-35r750,0v23,0,35,12,35,35v0,23,-12,35,-35,35r-715,0r0,605r565,0v23,0,35,12,35,35v0,23,-12,35,-35,35r-565,0r0,605r715,0v23,0,35,12,35,35","w":1020},"\u0117":{"d":"535,-1420v39,0,74,35,74,74v0,47,-25,71,-74,71v-49,0,-74,-24,-74,-71v0,-39,35,-74,74,-74xm50,-485v0,-313,313,-574,647,-456v83,29,263,144,262,232v0,13,-6,23,-17,29r-748,432v83,119,196,178,341,178v125,0,228,-47,309,-138v25,-28,38,-80,80,-87v32,-5,45,28,31,53v-72,133,-230,238,-420,242v-261,5,-485,-224,-485,-485xm535,-900v-284,0,-511,306,-376,592r717,-414v-83,-119,-196,-178,-341,-178","w":1010},"\u0118":{"d":"745,190v0,101,89,190,190,190v51,0,96,-18,133,-56v37,-38,57,-57,61,-57v25,0,37,11,37,34v-34,100,-123,147,-231,149v-139,2,-260,-121,-260,-260v0,-75,28,-139,83,-190r-573,0v-23,0,-35,-12,-35,-35r0,-1350v0,-23,12,-35,35,-35r750,0v23,0,35,12,35,35v0,23,-12,35,-35,35r-715,0r0,605r565,0v23,0,35,12,35,35v0,23,-12,35,-35,35r-565,0r0,605r715,0v24,0,36,12,36,35v0,23,-12,35,-36,35v-101,-3,-190,89,-190,190","w":1216},"\u0119":{"d":"50,-485v-3,-315,318,-578,652,-454v82,30,258,143,257,230v0,13,-6,23,-17,29r-748,432v83,119,196,178,341,178v125,0,228,-46,309,-138v25,-27,39,-81,80,-87v32,-5,44,27,31,53v-70,133,-232,242,-420,242v-101,0,-190,89,-190,190v0,101,89,190,190,190v53,0,97,-18,133,-56v36,-38,56,-57,61,-57v32,-2,46,27,32,52v-50,88,-126,131,-226,131v-139,0,-260,-121,-260,-260v0,-90,37,-161,111,-213v-183,-55,-334,-237,-336,-462xm535,-900v-284,0,-511,306,-376,592r717,-414v-83,-119,-196,-178,-341,-178","w":1010},"\u011a":{"d":"786,-1871v36,-4,45,47,18,65r-222,148v-16,12,-28,12,-44,0r-222,-148v-28,-16,-18,-69,18,-65v7,0,14,2,20,7r206,137r206,-137v6,-5,13,-7,20,-7xm970,-35v0,23,-12,35,-35,35r-750,0v-23,0,-35,-12,-35,-35r0,-1350v0,-23,12,-35,35,-35r750,0v23,0,35,12,35,35v0,23,-12,35,-35,35r-715,0r0,605r565,0v23,0,35,12,35,35v0,23,-12,35,-35,35r-565,0r0,605r715,0v23,0,35,12,35,35","w":1020},"\u011b":{"d":"761,-1421v36,-4,45,47,18,65r-225,150v-7,5,-31,5,-38,0r-225,-150v-28,-16,-18,-69,18,-65v7,0,14,2,20,7r206,137r206,-137v6,-5,13,-7,20,-7xm50,-485v0,-313,313,-574,647,-456v83,29,263,144,262,232v0,13,-6,23,-17,29r-748,432v83,119,196,178,341,178v125,0,228,-47,309,-138v25,-28,38,-80,80,-87v32,-5,45,28,31,53v-72,133,-230,238,-420,242v-261,5,-485,-224,-485,-485xm535,-900v-284,0,-511,306,-376,592r717,-414v-83,-119,-196,-178,-341,-178","w":1010},"\u011c":{"d":"1004,-1714v28,16,18,69,-18,65v-7,0,-14,-2,-20,-7r-206,-137r-206,137v-23,16,-54,4,-54,-30v0,-11,5,-21,16,-28r222,-148v16,-12,28,-12,44,0xm50,-710v0,-381,329,-710,710,-710v202,0,368,70,502,208v21,22,10,64,-25,60v-8,0,-16,-4,-25,-11v-145,-125,-296,-187,-452,-187v-344,0,-640,296,-640,640v0,344,296,640,640,640v171,0,319,-59,442,-177r0,-463v0,-23,12,-35,35,-35v23,0,35,12,35,35r0,478v0,9,-3,17,-10,24v-94,114,-303,204,-502,208v-381,7,-710,-329,-710,-710","w":1373},"\u011d":{"d":"704,-1264v28,16,18,69,-18,65v-7,0,-14,-2,-20,-7r-206,-137r-206,137v-23,16,-54,4,-54,-30v0,-11,5,-21,16,-28r222,-148v16,-12,28,-12,44,0xm125,-635v0,-179,156,-335,335,-335r375,0v23,0,35,12,35,35v0,23,-12,35,-35,35r-170,0v87,67,130,156,130,265v0,134,-59,233,-178,296v137,55,250,199,253,379v4,221,-190,410,-410,410v-221,0,-416,-190,-410,-410v0,-23,12,-35,35,-35v23,0,35,12,35,35v-5,181,159,340,340,340v181,0,340,-159,340,-340v0,-181,-159,-345,-339,-340v-180,5,-336,-156,-336,-335xm460,-370v141,0,265,-124,265,-265v0,-141,-124,-265,-265,-265v-141,0,-265,124,-265,265v0,141,124,265,265,265","w":920},"\u011e":{"d":"984,-1870v52,7,41,46,6,82v-177,180,-287,182,-461,0v-20,-22,-30,-38,-30,-47v0,-23,12,-35,37,-35v7,0,36,26,88,75v106,100,165,101,272,0v52,-49,81,-75,88,-75xm50,-710v0,-381,329,-710,710,-710v202,0,368,70,502,208v21,22,10,64,-25,60v-8,0,-16,-4,-25,-11v-145,-125,-296,-187,-452,-187v-344,0,-640,296,-640,640v0,344,296,640,640,640v171,0,319,-59,442,-177r0,-463v0,-23,12,-35,35,-35v23,0,35,12,35,35r0,478v0,9,-3,17,-10,24v-94,114,-303,204,-502,208v-381,7,-710,-329,-710,-710","w":1373},"\u011f":{"d":"684,-1420v52,7,41,46,6,82v-176,179,-289,183,-461,0v-20,-22,-30,-38,-30,-47v0,-23,12,-35,37,-35v7,0,35,26,87,75v106,100,166,100,273,0v52,-50,81,-75,88,-75xm125,-635v0,-179,156,-335,335,-335r375,0v23,0,35,12,35,35v0,23,-12,35,-35,35r-170,0v87,67,130,156,130,265v0,134,-59,233,-178,296v137,55,250,199,253,379v4,221,-190,410,-410,410v-221,0,-416,-190,-410,-410v0,-23,12,-35,35,-35v23,0,35,12,35,35v-5,181,159,340,340,340v181,0,340,-159,340,-340v0,-181,-159,-345,-339,-340v-180,5,-336,-156,-336,-335xm460,-370v141,0,265,-124,265,-265v0,-141,-124,-265,-265,-265v-141,0,-265,124,-265,265v0,141,124,265,265,265","w":920},"\u0120":{"d":"833,-1723v0,49,-24,73,-73,73v-48,0,-72,-24,-72,-73v0,-48,24,-72,72,-72v49,0,73,24,73,72xm50,-710v0,-381,329,-710,710,-710v202,0,368,70,502,208v21,22,10,64,-25,60v-8,0,-16,-4,-25,-11v-145,-125,-296,-187,-452,-187v-344,0,-640,296,-640,640v0,344,296,640,640,640v171,0,319,-59,442,-177r0,-463v0,-23,12,-35,35,-35v23,0,35,12,35,35r0,478v0,9,-3,17,-10,24v-94,114,-303,204,-502,208v-381,7,-710,-329,-710,-710","w":1373},"\u0121":{"d":"460,-1420v39,0,74,35,74,74v0,47,-25,71,-74,71v-49,0,-74,-24,-74,-71v0,-39,35,-74,74,-74xm125,-635v0,-179,156,-335,335,-335r375,0v23,0,35,12,35,35v0,23,-12,35,-35,35r-170,0v87,67,130,156,130,265v0,134,-59,233,-178,296v137,55,250,199,253,379v4,221,-190,410,-410,410v-221,0,-416,-190,-410,-410v0,-23,12,-35,35,-35v23,0,35,12,35,35v-5,181,159,340,340,340v181,0,340,-159,340,-340v0,-181,-159,-345,-339,-340v-180,5,-336,-156,-336,-335xm460,-370v141,0,265,-124,265,-265v0,-141,-124,-265,-265,-265v-141,0,-265,124,-265,265v0,141,124,265,265,265","w":920},"\u0122":{"d":"50,-710v0,-473,490,-859,982,-656v92,38,168,90,230,154v21,22,10,64,-25,60v-8,0,-16,-4,-25,-11v-146,-125,-297,-187,-452,-187v-344,0,-640,296,-640,640v0,344,296,640,640,640v171,0,318,-59,442,-177r0,-463v0,-23,12,-35,35,-35v23,0,35,12,35,35r0,478v0,8,-3,16,-10,24v-77,93,-192,156,-345,191v69,52,103,121,103,207v0,139,-121,260,-260,260v-97,0,-173,-43,-226,-131v-14,-24,0,-55,32,-52v5,0,25,19,61,57v36,38,80,56,133,56v101,0,190,-89,190,-190v0,-101,-89,-193,-190,-190v-381,11,-710,-329,-710,-710","w":1373},"\u0123":{"d":"200,-1335v0,-139,121,-260,260,-260v103,0,178,44,226,131v13,25,0,55,-32,52v-4,0,-24,-18,-62,-56v-38,-38,-82,-57,-132,-57v-101,0,-190,89,-190,190v0,101,89,193,190,190v23,0,35,12,35,35v0,23,-12,35,-35,35v-139,4,-260,-121,-260,-260xm125,-635v0,-179,156,-335,335,-335r375,0v23,0,35,12,35,35v0,23,-12,35,-35,35r-170,0v87,67,130,156,130,265v0,134,-59,233,-178,296v137,55,250,199,253,379v4,221,-190,410,-410,410v-221,0,-416,-190,-410,-410v0,-23,12,-35,35,-35v23,0,35,12,35,35v-5,181,159,340,340,340v181,0,340,-159,340,-340v0,-181,-159,-345,-339,-340v-180,5,-336,-156,-336,-335xm460,-370v141,0,265,-124,265,-265v0,-141,-124,-265,-265,-265v-141,0,-265,124,-265,265v0,141,124,265,265,265","w":920},"\u0124":{"d":"879,-1714v28,16,18,69,-18,65v-7,0,-14,-2,-20,-7r-206,-137r-206,137v-23,16,-54,4,-54,-30v0,-11,5,-21,16,-28r222,-148v16,-12,28,-12,44,0xm1120,-35v0,23,-12,35,-35,35v-23,0,-35,-12,-35,-35r0,-640r-830,0r0,640v0,23,-12,35,-35,35v-23,0,-35,-12,-35,-35r0,-1350v0,-23,12,-35,35,-35v23,0,35,12,35,35r0,640r830,0r0,-640v0,-23,12,-35,35,-35v23,0,35,12,35,35r0,1350","w":1270},"\u0125":{"d":"729,-1714v28,16,18,69,-18,65v-7,0,-14,-2,-20,-7r-206,-137r-206,137v-23,16,-54,4,-54,-30v0,-11,5,-21,16,-28r222,-148v16,-12,28,-12,44,0xm485,-970v179,0,335,156,335,335r0,600v0,23,-12,35,-35,35v-23,0,-35,-12,-35,-35r0,-600v4,-141,-124,-265,-265,-265v-141,0,-265,124,-265,265r0,600v0,23,-12,35,-35,35v-23,0,-35,-12,-35,-35r0,-1350v0,-23,12,-35,35,-35v23,0,35,12,35,35r0,545v67,-87,156,-130,265,-130","w":920},"\u0126":{"d":"1270,-1160v0,23,-12,35,-35,35r-115,0r0,1090v0,23,-12,35,-35,35v-23,0,-35,-12,-35,-35r0,-640r-830,0r0,640v0,23,-12,35,-35,35v-23,0,-35,-12,-35,-35r0,-1090r-115,0v-23,0,-35,-12,-35,-35v0,-23,12,-35,35,-35r115,0r0,-190v0,-23,12,-35,35,-35v23,0,35,12,35,35r0,190r830,0r0,-190v0,-23,12,-35,35,-35v23,0,35,12,35,35r0,190r115,0v23,0,35,12,35,35xm1050,-745r0,-380r-830,0r0,380r830,0","w":1270},"\u0127":{"d":"560,-970v179,0,335,156,335,335r0,600v0,23,-12,35,-35,35v-23,0,-35,-12,-35,-35r0,-600v4,-141,-124,-265,-265,-265v-141,0,-265,124,-265,265r0,600v0,23,-12,35,-35,35v-23,0,-35,-12,-35,-35r0,-1090r-190,0v-23,0,-35,-12,-35,-35v0,-23,12,-35,35,-35r190,0r0,-190v0,-23,12,-35,35,-35v23,0,35,12,35,35r0,190r190,0v23,0,35,12,35,35v0,23,-12,35,-35,35r-190,0r0,285v67,-87,156,-130,265,-130","w":995},"\u0128":{"d":"-150,-1759v19,-76,90,-111,185,-111v49,0,103,25,162,75v59,50,105,75,138,75v47,0,82,-13,105,-38v23,-25,38,-37,44,-37v24,0,36,11,36,34v-19,76,-90,111,-185,111v-49,0,-103,-25,-162,-75v-59,-50,-105,-75,-138,-75v-47,0,-82,13,-105,38v-23,25,-38,37,-44,37v-24,0,-36,-11,-36,-34xm220,-35v0,23,-12,35,-35,35v-23,0,-35,-12,-35,-35r0,-1350v0,-23,12,-35,35,-35v23,0,35,12,35,35r0,1350","w":370},"\u0129":{"d":"-150,-1309v19,-76,90,-111,185,-111v49,0,103,25,162,75v59,50,105,75,138,75v47,0,82,-13,105,-38v23,-25,38,-37,44,-37v24,0,36,11,36,34v-19,76,-90,111,-185,111v-49,0,-103,-25,-162,-75v-59,-50,-105,-75,-138,-75v-47,0,-82,13,-105,38v-23,25,-38,37,-44,37v-24,0,-36,-11,-36,-34xm220,-935r0,900v0,23,-12,35,-35,35v-23,0,-35,-12,-35,-35r0,-900v0,-23,12,-35,35,-35v23,0,35,12,35,35","w":370},"\u012a":{"d":"445,-1760v0,23,-12,35,-35,35r-450,0v-23,0,-35,-12,-35,-35v0,-23,12,-35,35,-35r450,0v23,0,35,12,35,35xm220,-35v0,23,-12,35,-35,35v-23,0,-35,-12,-35,-35r0,-1350v0,-23,12,-35,35,-35v23,0,35,12,35,35r0,1350","w":370},"\u012b":{"d":"395,-1310v0,23,-12,35,-35,35r-350,0v-23,0,-35,-12,-35,-35v0,-23,12,-35,35,-35r350,0v23,0,35,12,35,35xm220,-935r0,900v0,23,-12,35,-35,35v-23,0,-35,-12,-35,-35r0,-900v0,-23,12,-35,35,-35v23,0,35,12,35,35","w":370},"\u012c":{"d":"409,-1870v52,7,41,46,6,82v-176,179,-289,183,-461,0v-20,-22,-30,-38,-30,-47v0,-23,12,-35,37,-35v7,0,35,26,87,75v106,100,166,100,273,0v52,-50,81,-75,88,-75xm220,-35v0,23,-12,35,-35,35v-23,0,-35,-12,-35,-35r0,-1350v0,-23,12,-35,35,-35v23,0,35,12,35,35r0,1350","w":370},"\u012d":{"d":"409,-1420v52,7,41,46,6,82v-176,179,-289,183,-461,0v-20,-22,-30,-38,-30,-47v0,-23,12,-35,37,-35v7,0,35,26,87,75v106,100,166,100,273,0v52,-50,81,-75,88,-75xm220,-935r0,900v0,23,-12,35,-35,35v-23,0,-35,-12,-35,-35r0,-900v0,-23,12,-35,35,-35v23,0,35,12,35,35","w":370},"\u012e":{"d":"-5,190v0,101,89,190,190,190v51,0,94,-18,131,-56v37,-38,58,-57,63,-57v32,-2,45,27,32,52v-47,87,-123,131,-226,131v-139,0,-260,-121,-260,-260v0,-131,105,-246,225,-258r0,-1317v0,-23,12,-35,35,-35v23,0,35,12,35,35r0,1350v0,23,-12,35,-35,35v-101,-3,-190,89,-190,190","w":370},"\u012f":{"d":"185,-1420v39,0,74,35,74,74v0,47,-25,71,-74,71v-49,0,-74,-24,-74,-71v0,-39,35,-74,74,-74xm-5,190v0,101,89,190,190,190v51,0,94,-18,131,-56v37,-38,58,-57,63,-57v32,-2,45,27,32,52v-47,87,-123,131,-226,131v-139,0,-260,-121,-260,-260v0,-131,105,-246,225,-258r0,-867v0,-23,12,-35,35,-35v23,0,35,12,35,35r0,900v0,23,-12,35,-35,35v-101,-3,-190,89,-190,190","w":370},"\u0130":{"d":"257,-1723v0,49,-24,73,-73,73v-48,0,-72,-24,-72,-73v0,-48,24,-72,72,-72v49,0,73,24,73,72xm219,-35v0,23,-11,35,-34,35v-23,0,-35,-12,-35,-35r-1,-1350v0,-23,12,-35,35,-35v23,0,35,12,35,35r0,1350","w":370},"\u0131":{"d":"220,-935r0,900v0,23,-12,35,-35,35v-23,0,-35,-12,-35,-35r0,-900v0,-23,12,-35,35,-35v23,0,35,12,35,35","w":370},"\u0132":{"d":"485,380v141,0,265,-124,265,-265r0,-1500v0,-23,12,-35,35,-35v23,0,35,12,35,35r0,1500v5,179,-156,340,-335,335v-135,-3,-257,-79,-296,-187v0,-23,12,-34,37,-34v32,10,91,101,121,112v39,26,85,39,138,39xm220,-35v0,23,-12,35,-35,35v-23,0,-35,-12,-35,-35r0,-1350v0,-23,12,-35,35,-35v23,0,35,12,35,35r0,1350","w":970},"\u0133":{"d":"635,-1420v39,0,74,35,74,74v0,47,-25,71,-74,71v-49,0,-74,-24,-74,-71v0,-39,35,-74,74,-74xm185,-1420v39,0,74,35,74,74v0,47,-25,71,-74,71v-49,0,-74,-24,-74,-71v0,-39,35,-74,74,-74xm410,380v101,3,190,-89,190,-190r0,-1125v0,-23,12,-35,35,-35v23,0,35,12,35,35r0,1125v4,139,-121,260,-260,260v-79,0,-139,-26,-184,-76v-21,-23,-10,-63,25,-60v15,7,117,78,159,66xm220,-935r0,900v0,23,-12,35,-35,35v-23,0,-35,-12,-35,-35r0,-900v0,-23,12,-35,35,-35v23,0,35,12,35,35","w":820},"\u0134":{"d":"514,-1714v28,16,18,69,-19,65v-7,0,-13,-2,-20,-7r-206,-137r-205,137v-24,16,-55,3,-55,-30v0,-11,5,-21,16,-28r222,-148v18,-12,27,-12,45,0xm194,380v142,0,265,-123,265,-265r0,-1500v0,-23,12,-35,35,-35v23,0,35,12,35,35r0,1500v9,241,-277,426,-503,289v-57,-36,-105,-75,-127,-141v0,-23,12,-34,37,-34v32,11,90,101,121,112v39,26,85,39,137,39","w":680},"\u0135":{"d":"429,-1264v28,16,18,69,-18,65v-7,0,-14,-2,-20,-7r-206,-137r-206,137v-23,16,-55,3,-55,-30v0,-11,6,-21,17,-28r222,-148v16,-12,28,-12,44,0xm-40,380v101,3,190,-89,190,-190r0,-1125v0,-23,12,-35,35,-35v23,0,35,12,35,35r0,1125v4,139,-121,260,-260,260v-79,0,-139,-26,-184,-76v-21,-23,-10,-63,25,-60v15,7,117,78,159,66","w":370},"\u0136":{"d":"930,-1421v35,-4,47,40,25,61r-650,650r650,650v22,21,11,61,-25,61v-9,0,-17,-4,-24,-11r-675,-675v-7,-7,-11,-16,-11,-25r0,675v0,23,-12,35,-35,35v-23,0,-35,-12,-35,-35r0,-1350v0,-23,12,-35,35,-35v23,0,35,12,35,35r0,675v0,-9,4,-18,11,-25r675,-675v7,-7,15,-11,24,-11xm560,-70v140,-4,260,121,260,260v0,139,-120,260,-260,260v-103,0,-178,-44,-225,-131v-13,-25,0,-55,31,-52v4,0,25,19,63,57v38,38,82,56,131,56v102,0,190,-89,190,-190v0,-101,-88,-193,-190,-190v-23,0,-35,-12,-35,-35v0,-23,12,-35,35,-35","w":1016},"\u0137":{"d":"730,-60v22,21,11,61,-25,61v-9,0,-18,-4,-25,-11r-450,-450v-16,-14,-14,-36,0,-50r450,-450v21,-22,61,-11,61,25v0,9,-4,18,-11,25r-426,425xm220,-1385r0,1350v0,23,-12,35,-35,35v-23,0,-35,-12,-35,-35r0,-1350v0,-23,12,-35,35,-35v23,0,35,12,35,35xm420,-70v139,-4,260,121,260,260v0,139,-121,260,-260,260v-103,0,-176,-44,-225,-131v-14,-25,-1,-55,31,-52v4,0,25,19,63,57v38,38,82,56,131,56v101,0,190,-89,190,-190v0,-101,-89,-193,-190,-190v-23,0,-35,-12,-35,-35v0,-23,12,-35,35,-35","w":791},"\u0138":{"d":"730,-60v22,21,11,61,-25,61v-9,0,-18,-4,-25,-11r-450,-450v-13,-12,-13,-38,0,-50r450,-450v21,-22,61,-11,61,25v0,9,-4,18,-11,25r-426,425xm220,-35v0,23,-12,35,-35,35v-23,0,-35,-12,-35,-35r0,-900v0,-23,12,-35,35,-35v23,0,35,12,35,35r0,900","w":791},"\u0139":{"d":"711,-1871v38,-4,46,52,15,67v-12,10,-304,158,-317,155v-38,4,-46,-52,-15,-67v12,-10,304,-158,317,-155xm970,-35v0,23,-12,35,-35,35r-750,0v-23,0,-35,-12,-35,-35r0,-1350v0,-23,12,-35,35,-35v23,0,35,12,35,35r0,1315r715,0v23,0,35,12,35,35","w":1020},"\u013a":{"d":"436,-1871v39,-4,48,53,15,67v-11,10,-304,158,-317,155v-38,3,-46,-53,-14,-67v11,-10,303,-157,316,-155xm170,-260v-3,101,89,193,190,190v23,0,35,12,35,35v0,23,-12,35,-35,35v-139,4,-260,-121,-260,-260r0,-1125v0,-23,12,-35,35,-35v23,0,35,12,35,35r0,1125","w":521},"\u013b":{"d":"750,190v0,-101,-89,-190,-190,-190r-375,0v-23,0,-35,-12,-35,-35r0,-1350v0,-23,12,-35,35,-35v23,0,35,12,35,35r0,1315r715,0v23,0,35,12,35,35v0,23,-12,35,-35,35r-198,0v55,51,83,115,83,190v0,139,-121,260,-260,260v-105,0,-180,-44,-226,-131v-13,-25,0,-55,32,-52v4,0,25,19,62,57v37,38,81,56,132,56v101,0,190,-89,190,-190","w":1020},"\u013c":{"d":"360,-70v139,-4,260,121,260,260v0,139,-121,260,-260,260v-102,0,-177,-44,-226,-131v-13,-25,0,-55,32,-52v4,0,25,19,63,57v38,38,82,56,131,56v101,0,190,-89,190,-190v0,-101,-89,-193,-190,-190v-139,4,-260,-121,-260,-260r0,-1125v0,-23,12,-35,35,-35v23,0,35,12,35,35r0,1125v-3,101,89,193,190,190","w":670},"\u013d":{"d":"786,-1871v36,-4,45,47,18,65r-222,148v-16,12,-28,12,-44,0r-222,-148v-28,-16,-18,-69,18,-65v7,0,14,2,20,7r206,137r206,-137v6,-5,13,-7,20,-7xm970,-35v0,23,-12,35,-35,35r-750,0v-23,0,-35,-12,-35,-35r0,-1350v0,-23,12,-35,35,-35v23,0,35,12,35,35r0,1315r715,0v23,0,35,12,35,35","w":1020},"\u013e":{"d":"361,-1871v36,-4,45,47,18,65r-222,148v-16,12,-28,12,-44,0r-222,-148v-28,-16,-18,-69,18,-65v7,0,14,2,20,7r206,137r206,-137v6,-5,13,-7,20,-7xm170,-260v-3,101,89,193,190,190v23,0,35,12,35,35v0,23,-12,35,-35,35v-139,4,-260,-121,-260,-260r0,-1125v0,-23,12,-35,35,-35v23,0,35,12,35,35r0,1125","w":445},"\u013f":{"d":"783,-710v0,49,-24,73,-73,73v-48,0,-72,-24,-72,-73v0,-48,24,-72,72,-72v49,0,73,24,73,72xm970,-35v0,23,-12,35,-35,35r-750,0v-23,0,-35,-12,-35,-35r0,-1350v0,-23,12,-35,35,-35v23,0,35,12,35,35r0,1315r715,0v23,0,35,12,35,35","w":1020},"\u0140":{"d":"470,-710v0,49,-24,73,-73,73v-48,0,-72,-24,-72,-73v0,-48,24,-72,72,-72v49,0,73,24,73,72xm170,-260v-3,101,89,193,190,190v23,0,35,12,35,35v0,23,-12,35,-35,35v-139,4,-260,-121,-260,-260r0,-1125v0,-23,12,-35,35,-35v23,0,35,12,35,35r0,1125","w":520},"\u0141":{"d":"1045,-35v0,23,-12,35,-35,35r-750,0v-23,0,-35,-12,-35,-35r0,-626v-123,41,-186,61,-191,61v-40,5,-45,-56,-10,-68r201,-67r0,-650v0,-23,12,-35,35,-35v23,0,35,12,35,35r0,626v123,-41,187,-61,192,-61v40,-5,44,56,9,68r-201,67r0,615r715,0v23,0,35,12,35,35","w":1095},"\u0142":{"d":"485,0v-139,4,-260,-121,-260,-260r0,-401v-123,41,-186,61,-191,61v-40,5,-45,-56,-10,-68r201,-67r0,-650v0,-23,12,-35,35,-35v23,0,35,12,35,35r0,626v123,-41,187,-61,192,-61v40,-5,44,56,9,68r-201,67r0,425v-3,101,89,193,190,190v23,0,35,12,35,35v0,23,-12,35,-35,35","w":570},"\u0143":{"d":"862,-1871v38,-3,46,53,14,67v-11,10,-303,157,-316,155v-39,4,-48,-53,-15,-67v11,-10,304,-158,317,-155xm1271,-35v2,39,-46,45,-67,17r-983,-1265r0,1248v0,23,-12,35,-35,35v-23,0,-35,-12,-35,-35r-1,-1350v-2,-39,46,-44,67,-17r984,1265r0,-1248v0,-23,12,-35,35,-35v23,0,35,12,35,35r0,1350","w":1421},"\u0144":{"d":"636,-1421v38,-4,46,52,15,67v-12,10,-304,158,-317,155v-38,4,-46,-52,-15,-67v12,-10,304,-158,317,-155xm485,-970v179,0,335,156,335,335r0,600v0,23,-12,35,-35,35v-23,0,-35,-12,-35,-35r0,-600v4,-141,-124,-265,-265,-265v-141,0,-265,124,-265,265r0,600v0,23,-12,35,-35,35v-23,0,-35,-12,-35,-35r0,-900v0,-23,12,-35,35,-35v56,-1,29,81,35,130v67,-87,156,-130,265,-130","w":920},"\u0145":{"d":"1271,-35v2,39,-46,45,-67,17r-983,-1265r0,1248v0,23,-12,35,-35,35v-23,0,-35,-12,-35,-35r-1,-1350v-2,-39,46,-44,67,-17r984,1265r0,-1248v0,-23,12,-35,35,-35v23,0,35,12,35,35r0,1350xm711,-70v139,-4,260,121,260,260v0,139,-121,260,-260,260v-103,0,-178,-44,-226,-131v-13,-25,0,-55,32,-52v4,0,25,19,63,57v38,38,81,56,131,56v101,0,190,-89,190,-190v0,-101,-89,-193,-190,-190v-23,0,-35,-12,-35,-35v0,-23,12,-35,35,-35","w":1421},"\u0146":{"d":"485,-970v179,0,335,156,335,335r0,600v0,23,-12,35,-35,35v-23,0,-35,-12,-35,-35r0,-600v4,-141,-124,-265,-265,-265v-141,0,-265,124,-265,265r0,600v0,23,-12,35,-35,35v-23,0,-35,-12,-35,-35r0,-900v0,-23,12,-35,35,-35v56,-1,29,81,35,130v67,-87,156,-130,265,-130xm485,-70v139,-4,260,121,260,260v0,139,-121,260,-260,260v-103,0,-178,-44,-226,-131v-13,-25,0,-55,32,-52v4,0,25,19,63,57v38,38,81,56,131,56v101,0,190,-89,190,-190v0,-101,-89,-193,-190,-190v-23,0,-35,-12,-35,-35v0,-23,12,-35,35,-35","w":920},"\u0147":{"d":"936,-1871v37,-4,46,47,19,65r-222,148v-18,12,-27,12,-45,0r-222,-148v-28,-16,-18,-69,19,-65v7,0,13,2,20,7r206,137r205,-137v7,-5,13,-7,20,-7xm1271,-35v2,39,-46,45,-67,17r-983,-1265r0,1248v0,23,-12,35,-35,35v-23,0,-35,-12,-35,-35r-1,-1350v-2,-39,46,-44,67,-17r984,1265r0,-1248v0,-23,12,-35,35,-35v23,0,35,12,35,35r0,1350","w":1421},"\u0148":{"d":"711,-1421v36,-4,45,47,18,65r-222,148v-16,12,-28,12,-44,0r-222,-148v-28,-16,-18,-69,18,-65v7,0,14,2,20,7r206,137r206,-137v6,-5,13,-7,20,-7xm485,-970v179,0,335,156,335,335r0,600v0,23,-12,35,-35,35v-23,0,-35,-12,-35,-35r0,-600v4,-141,-124,-265,-265,-265v-141,0,-265,124,-265,265r0,600v0,23,-12,35,-35,35v-23,0,-35,-12,-35,-35r0,-900v0,-23,12,-35,35,-35v56,-1,29,81,35,130v67,-87,156,-130,265,-130","w":920},"\u0149":{"d":"271,-1386v5,2,-151,395,-153,388v-14,35,-68,28,-68,-11v0,-12,148,-390,152,-389v13,-35,72,-27,69,12xm585,-970v180,0,335,156,335,335r0,600v0,23,-12,35,-35,35v-23,0,-35,-12,-35,-35r0,-600v4,-142,-123,-265,-265,-265v-141,0,-265,124,-265,265r0,600v0,23,-12,35,-35,35v-23,0,-35,-12,-35,-35r0,-900v0,-23,12,-35,35,-35v56,-1,29,81,35,130v67,-87,156,-130,265,-130","w":1020},"\u014a":{"d":"800,341v173,113,410,-34,401,-226r0,-138r-980,-1260r0,1248v0,23,-12,35,-35,35v-23,0,-35,-12,-35,-35r-1,-1350v-2,-39,46,-44,67,-17r984,1265r0,-1248v0,-23,12,-35,35,-35v23,0,35,12,35,35r0,1500v5,178,-157,340,-335,335v-135,-4,-260,-78,-296,-187v0,-23,12,-34,37,-34v31,11,93,101,123,112","w":1421},"\u014b":{"d":"485,-970v179,0,335,156,335,335r0,825v4,139,-121,260,-260,260v-77,0,-137,-26,-184,-76v-21,-22,-10,-63,25,-60v17,7,116,78,159,66v101,3,190,-89,190,-190r0,-825v4,-141,-124,-265,-265,-265v-141,0,-265,124,-265,265r0,600v0,23,-12,35,-35,35v-23,0,-35,-12,-35,-35r0,-900v0,-23,12,-35,35,-35v56,-1,29,81,35,130v67,-87,156,-130,265,-130","w":920},"\u014c":{"d":"1470,-1760v0,23,-12,35,-35,35r-1350,0v-23,0,-35,-12,-35,-35v0,-23,12,-35,35,-35r1350,0v23,0,35,12,35,35xm760,-1420v381,0,710,329,710,710v0,381,-329,710,-710,710v-381,0,-710,-329,-710,-710v0,-381,329,-710,710,-710xm760,-70v344,0,640,-296,640,-640v0,-344,-296,-640,-640,-640v-344,0,-640,296,-640,640v0,344,296,640,640,640","w":1520},"\u014d":{"d":"1020,-1310v0,23,-12,35,-35,35r-900,0v-23,0,-35,-12,-35,-35v0,-23,12,-35,35,-35r900,0v23,0,35,12,35,35xm535,-970v261,0,485,224,485,485v0,261,-224,485,-485,485v-261,0,-485,-224,-485,-485v0,-261,224,-485,485,-485xm535,-70v223,0,415,-192,415,-415v0,-223,-192,-415,-415,-415v-223,0,-415,192,-415,415v0,223,192,415,415,415"},"\u014e":{"d":"984,-1870v52,7,41,46,6,82v-177,180,-287,182,-461,0v-20,-22,-30,-38,-30,-47v0,-23,12,-35,37,-35v7,0,36,26,88,75v106,100,165,101,272,0v52,-49,81,-75,88,-75xm760,-1420v381,0,710,329,710,710v0,381,-329,710,-710,710v-381,0,-710,-329,-710,-710v0,-381,329,-710,710,-710xm760,-70v344,0,640,-296,640,-640v0,-344,-296,-640,-640,-640v-344,0,-640,296,-640,640v0,344,296,640,640,640","w":1520},"\u014f":{"d":"759,-1420v52,7,41,46,6,82v-176,179,-289,183,-461,0v-20,-22,-30,-38,-30,-47v0,-23,12,-35,37,-35v7,0,35,26,87,75v106,100,166,100,273,0v52,-50,81,-75,88,-75xm535,-970v261,0,485,224,485,485v0,261,-224,485,-485,485v-261,0,-485,-224,-485,-485v0,-261,224,-485,485,-485xm535,-70v223,0,415,-192,415,-415v0,-223,-192,-415,-415,-415v-223,0,-415,192,-415,415v0,223,192,415,415,415"},"\u0150":{"d":"1136,-1871v38,-4,46,52,15,67v-12,10,-304,158,-317,155v-38,4,-46,-52,-15,-67v12,-10,304,-158,317,-155xm686,-1871v38,-4,46,52,15,67v-12,10,-304,158,-317,155v-38,4,-46,-52,-15,-67v12,-10,304,-158,317,-155xm760,-1420v381,0,710,329,710,710v0,381,-329,710,-710,710v-381,0,-710,-329,-710,-710v0,-381,329,-710,710,-710xm760,-70v344,0,640,-296,640,-640v0,-344,-296,-640,-640,-640v-344,0,-640,296,-640,640v0,344,296,640,640,640","w":1520},"\u0151":{"d":"911,-1421v38,-4,46,52,15,67v-12,10,-304,158,-317,155v-38,4,-46,-52,-15,-67v12,-10,304,-158,317,-155xm461,-1421v38,-4,46,52,15,67v-12,10,-304,158,-317,155v-38,4,-46,-52,-15,-67v12,-10,304,-158,317,-155xm535,-970v261,0,485,224,485,485v0,261,-224,485,-485,485v-261,0,-485,-224,-485,-485v0,-261,224,-485,485,-485xm535,-70v223,0,415,-192,415,-415v0,-223,-192,-415,-415,-415v-223,0,-415,192,-415,415v0,223,192,415,415,415"},"\u0152":{"d":"760,-1420v298,6,539,182,640,402r0,-367v0,-23,12,-35,35,-35r750,0v23,0,35,12,35,35v0,23,-12,35,-35,35r-715,0r0,605r565,0v23,0,35,12,35,35v0,23,-12,35,-35,35r-565,0r0,605r715,0v23,0,35,12,35,35v0,23,-12,35,-35,35r-750,0v-23,0,-35,-12,-35,-35r0,-367v-102,220,-341,396,-640,402v-381,7,-710,-329,-710,-710v0,-381,329,-717,710,-710xm760,-70v344,0,640,-296,640,-640v0,-344,-296,-640,-640,-640v-344,0,-640,296,-640,640v0,344,296,640,640,640","w":2270},"\u0153":{"d":"985,-666v75,-208,338,-370,612,-275v84,29,263,144,262,232v0,13,-6,23,-17,29r-748,432v83,119,196,178,341,178v128,0,232,-48,313,-142v23,-27,36,-77,76,-83v32,-5,45,29,31,53v-93,162,-235,242,-420,242v-213,-1,-389,-138,-450,-304v-62,167,-236,300,-450,304v-261,5,-485,-224,-485,-485v0,-261,224,-490,485,-485v213,4,389,138,450,304xm1435,-900v-284,0,-511,306,-376,592r717,-414v-83,-119,-196,-178,-341,-178xm535,-70v223,0,415,-192,415,-415v0,-223,-192,-415,-415,-415v-223,0,-415,192,-415,415v0,223,192,415,415,415","w":1910},"\u0154":{"d":"711,-1871v38,-4,46,52,15,67v-12,10,-304,158,-317,155v-38,4,-46,-52,-15,-67v12,-10,304,-158,317,-155xm970,-1010v0,221,-190,416,-410,410r-141,0r541,540v22,21,11,61,-25,61v-9,0,-18,-4,-25,-11r-595,-596v-29,-24,-18,-64,27,-64r218,0v181,5,340,-159,340,-340v0,-181,-159,-340,-340,-340r-340,0r0,1315v0,23,-12,35,-35,35v-23,0,-35,-12,-35,-35r0,-1352v0,-22,12,-33,35,-33r375,0v221,-6,410,190,410,410","w":1021},"\u0155":{"d":"561,-1421v38,-4,46,52,15,67v-12,10,-304,158,-317,155v-38,4,-46,-52,-15,-67v12,-10,304,-158,317,-155xm410,-900v-101,0,-190,89,-190,190r0,675v0,23,-12,35,-35,35v-23,0,-35,-12,-35,-35r0,-900v0,-23,12,-35,35,-35v24,0,36,28,35,83v113,-134,370,-101,421,66v0,23,-12,34,-37,34v-5,0,-25,-19,-62,-57v-37,-38,-81,-56,-132,-56","w":691},"\u0156":{"d":"970,-1010v0,221,-190,416,-410,410r-141,0r541,540v22,21,11,61,-25,61v-9,0,-18,-4,-25,-11r-595,-596v-29,-24,-18,-64,27,-64r218,0v181,5,340,-159,340,-340v0,-181,-159,-340,-340,-340r-340,0r0,1315v0,23,-12,35,-35,35v-23,0,-35,-12,-35,-35r0,-1352v0,-22,12,-33,35,-33r375,0v221,-6,410,190,410,410xm560,-70v139,-4,260,121,260,260v0,139,-121,260,-260,260v-103,0,-178,-44,-226,-131v-13,-25,0,-55,32,-52v4,0,24,19,62,57v38,38,82,56,132,56v101,0,190,-89,190,-190v0,-101,-89,-193,-190,-190v-23,0,-35,-12,-35,-35v0,-23,12,-35,35,-35","w":1021},"\u0157":{"d":"375,190v0,-101,-89,-193,-190,-190v-23,0,-35,-12,-35,-35r0,-900v0,-23,12,-35,35,-35v24,0,36,28,35,83v114,-134,369,-101,421,66v0,23,-12,34,-37,34v-5,0,-26,-19,-64,-57v-38,-38,-81,-56,-130,-56v-102,0,-190,89,-190,190r0,642v120,13,225,127,225,258v0,139,-121,260,-260,260v-104,0,-179,-44,-226,-131v-13,-25,0,-55,32,-52v4,0,25,19,63,57v38,38,81,56,131,56v101,0,190,-89,190,-190","w":691},"\u0158":{"d":"786,-1871v36,-4,45,47,18,65r-222,148v-16,12,-28,12,-44,0r-222,-148v-28,-16,-18,-69,18,-65v7,0,14,2,20,7r206,137r206,-137v6,-5,13,-7,20,-7xm970,-1010v0,221,-190,416,-410,410r-141,0r541,540v22,21,11,61,-25,61v-9,0,-18,-4,-25,-11r-595,-596v-29,-24,-18,-64,27,-64r218,0v181,5,340,-159,340,-340v0,-181,-159,-340,-340,-340r-340,0r0,1315v0,23,-12,35,-35,35v-23,0,-35,-12,-35,-35r0,-1352v0,-22,12,-33,35,-33r375,0v221,-6,410,190,410,410","w":1021},"\u0159":{"d":"636,-1421v37,-4,46,47,19,65r-222,148v-18,12,-27,12,-45,0r-222,-148v-28,-16,-18,-69,19,-65v7,0,13,2,20,7r205,137r206,-137v7,-5,13,-7,20,-7xm410,-900v-101,0,-190,89,-190,190r0,675v0,23,-12,35,-35,35v-23,0,-35,-12,-35,-35r0,-900v0,-23,12,-35,35,-35v24,0,36,28,35,83v113,-133,371,-103,421,66v0,23,-12,34,-37,34v-4,0,-25,-19,-62,-57v-37,-38,-81,-56,-132,-56","w":721},"\u015a":{"d":"562,-1871v38,-3,46,53,14,67v-11,10,-303,158,-316,155v-39,4,-48,-53,-15,-67v11,-10,304,-158,317,-155xm411,-820v219,-6,410,190,410,410v0,220,-191,414,-410,410v-162,-3,-294,-93,-356,-205v-14,-25,0,-57,32,-53v34,5,36,36,62,66v67,81,155,122,262,122v181,0,340,-159,340,-340v0,-181,-158,-345,-339,-340v-180,5,-336,-156,-336,-335v0,-179,155,-335,335,-335v127,0,224,55,289,166v15,24,2,56,-31,53v-32,-10,-91,-99,-122,-110v-39,-26,-85,-39,-136,-39v-142,0,-265,123,-265,265v0,142,123,269,265,265","w":871},"\u015b":{"d":"477,-1421v38,-3,46,53,14,67v-11,10,-303,158,-316,155v-39,4,-48,-53,-15,-67v11,-10,304,-158,317,-155xm339,-595v156,-4,289,142,289,298v0,159,-138,301,-297,297v-138,-3,-255,-88,-281,-205v-9,-38,54,-46,68,-11v34,85,111,146,213,146v122,0,227,-106,227,-227v0,-128,-111,-231,-238,-228v-117,3,-217,-106,-217,-222v0,-119,104,-223,223,-223v85,0,151,36,192,110v14,25,1,56,-31,53v-5,0,-23,-16,-53,-47v-30,-31,-67,-46,-108,-46v-82,0,-153,71,-153,153v0,90,76,154,166,152","w":678},"\u015c":{"d":"655,